{"learner":{"attributes":{"scikit_learn":"{\"_estimator_type\": \"classifier\"}"},"feature_names":["published_hour","published_dayofweek","published_month","is_weekend","is_prime_time","is_morning","is_lunch_slot","publish_quarter","title_length","title_word_count","has_number","has_question","has_exclamation","has_emoji","has_caps_word","duration_minutes","tag_count","has_tags","is_hd","has_caption","is_embeddable","is_made_for_kids","is_shorts","is_short","is_medium","category_id_enc","subscriber_log","channel_age_days","upload_freq_per_day","channel_avg_views_log","channel_avg_like_rate","channel_avg_cmt_rate","duration_vs_channel","total_videos_crawled","avg_views_per_day_log","engagement_level_enc","like_rate_pct","comment_rate_pct","engagement_score","view_vs_channel_avg","like_rate_vs_channel","comment_rate_vs_channel","velocity_score"],"feature_types":["int","int","int","int","int","int","int","int","int","int","int","int","int","int","int","float","int","int","int","int","int","int","int","int","int","int","float","float","float","float","float","float","float","int","float","int","float","float","float","float","float","float","float"],"gradient_booster":{"model":{"cats":{"enc":[],"feature_segments":[],"sorted_idx":[]},"gbtree_model_param":{"num_parallel_tree":"1","num_trees":"1031"},"iteration_indptr":[0,1,2,3,4,5,6,7,8,9,10,11,12,13,14,15,16,17,18,19,20,21,22,23,24,25,26,27,28,29,30,31,32,33,34,35,36,37,38,39,40,41,42,43,44,45,46,47,48,49,50,51,52,53,54,55,56,57,58,59,60,61,62,63,64,65,66,67,68,69,70,71,72,73,74,75,76,77,78,79,80,81,82,83,84,85,86,87,88,89,90,91,92,93,94,95,96,97,98,99,100,101,102,103,104,105,106,107,108,109,110,111,112,113,114,115,116,117,118,119,120,121,122,123,124,125,126,127,128,129,130,131,132,133,134,135,136,137,138,139,140,141,142,143,144,145,146,147,148,149,150,151,152,153,154,155,156,157,158,159,160,161,162,163,164,165,166,167,168,169,170,171,172,173,174,175,176,177,178,179,180,181,182,183,184,185,186,187,188,189,190,191,192,193,194,195,196,197,198,199,200,201,202,203,204,205,206,207,208,209,210,211,212,213,214,215,216,217,218,219,220,221,222,223,224,225,226,227,228,229,230,231,232,233,234,235,236,237,238,239,240,241,242,243,244,245,246,247,248,249,250,251,252,253,254,255,256,257,258,259,260,261,262,263,264,265,266,267,268,269,270,271,272,273,274,275,276,277,278,279,280,281,282,283,284,285,286,287,288,289,290,291,292,293,294,295,296,297,298,299,300,301,302,303,304,305,306,307,308,309,310,311,312,313,314,315,316,317,318,319,320,321,322,323,324,325,326,327,328,329,330,331,332,333,334,335,336,337,338,339,340,341,342,343,344,345,346,347,348,349,350,351,352,353,354,355,356,357,358,359,360,361,362,363,364,365,366,367,368,369,370,371,372,373,374,375,376,377,378,379,380,381,382,383,384,385,386,387,388,389,390,391,392,393,394,395,396,397,398,399,400,401,402,403,404,405,406,407,408,409,410,411,412,413,414,415,416,417,418,419,420,421,422,423,424,425,426,427,428,429,430,431,432,433,434,435,436,437,438,439,440,441,442,443,444,445,446,447,448,449,450,451,452,453,454,455,456,457,458,459,460,461,462,463,464,465,466,467,468,469,470,471,472,473,474,475,476,477,478,479,480,481,482,483,484,485,486,487,488,489,490,491,492,493,494,495,496,497,498,499,500,501,502,503,504,505,506,507,508,509,510,511,512,513,514,515,516,517,518,519,520,521,522,523,524,525,526,527,528,529,530,531,532,533,534,535,536,537,538,539,540,541,542,543,544,545,546,547,548,549,550,551,552,553,554,555,556,557,558,559,560,561,562,563,564,565,566,567,568,569,570,571,572,573,574,575,576,577,578,579,580,581,582,583,584,585,586,587,588,589,590,591,592,593,594,595,596,597,598,599,600,601,602,603,604,605,606,607,608,609,610,611,612,613,614,615,616,617,618,619,620,621,622,623,624,625,626,627,628,629,630,631,632,633,634,635,636,637,638,639,640,641,642,643,644,645,646,647,648,649,650,651,652,653,654,655,656,657,658,659,660,661,662,663,664,665,666,667,668,669,670,671,672,673,674,675,676,677,678,679,680,681,682,683,684,685,686,687,688,689,690,691,692,693,694,695,696,697,698,699,700,701,702,703,704,705,706,707,708,709,710,711,712,713,714,715,716,717,718,719,720,721,722,723,724,725,726,727,728,729,730,731,732,733,734,735,736,737,738,739,740,741,742,743,744,745,746,747,748,749,750,751,752,753,754,755,756,757,758,759,760,761,762,763,764,765,766,767,768,769,770,771,772,773,774,775,776,777,778,779,780,781,782,783,784,785,786,787,788,789,790,791,792,793,794,795,796,797,798,799,800,801,802,803,804,805,806,807,808,809,810,811,812,813,814,815,816,817,818,819,820,821,822,823,824,825,826,827,828,829,830,831,832,833,834,835,836,837,838,839,840,841,842,843,844,845,846,847,848,849,850,851,852,853,854,855,856,857,858,859,860,861,862,863,864,865,866,867,868,869,870,871,872,873,874,875,876,877,878,879,880,881,882,883,884,885,886,887,888,889,890,891,892,893,894,895,896,897,898,899,900,901,902,903,904,905,906,907,908,909,910,911,912,913,914,915,916,917,918,919,920,921,922,923,924,925,926,927,928,929,930,931,932,933,934,935,936,937,938,939,940,941,942,943,944,945,946,947,948,949,950,951,952,953,954,955,956,957,958,959,960,961,962,963,964,965,966,967,968,969,970,971,972,973,974,975,976,977,978,979,980,981,982,983,984,985,986,987,988,989,990,991,992,993,994,995,996,997,998,999,1000,1001,1002,1003,1004,1005,1006,1007,1008,1009,1010,1011,1012,1013,1014,1015,1016,1017,1018,1019,1020,1021,1022,1023,1024,1025,1026,1027,1028,1029,1030,1031],"tree_info":[0,0,0,0,0,0,0,0,0,0,0,0,0,0,0,0,0,0,0,0,0,0,0,0,0,0,0,0,0,0,0,0,0,0,0,0,0,0,0,0,0,0,0,0,0,0,0,0,0,0,0,0,0,0,0,0,0,0,0,0,0,0,0,0,0,0,0,0,0,0,0,0,0,0,0,0,0,0,0,0,0,0,0,0,0,0,0,0,0,0,0,0,0,0,0,0,0,0,0,0,0,0,0,0,0,0,0,0,0,0,0,0,0,0,0,0,0,0,0,0,0,0,0,0,0,0,0,0,0,0,0,0,0,0,0,0,0,0,0,0,0,0,0,0,0,0,0,0,0,0,0,0,0,0,0,0,0,0,0,0,0,0,0,0,0,0,0,0,0,0,0,0,0,0,0,0,0,0,0,0,0,0,0,0,0,0,0,0,0,0,0,0,0,0,0,0,0,0,0,0,0,0,0,0,0,0,0,0,0,0,0,0,0,0,0,0,0,0,0,0,0,0,0,0,0,0,0,0,0,0,0,0,0,0,0,0,0,0,0,0,0,0,0,0,0,0,0,0,0,0,0,0,0,0,0,0,0,0,0,0,0,0,0,0,0,0,0,0,0,0,0,0,0,0,0,0,0,0,0,0,0,0,0,0,0,0,0,0,0,0,0,0,0,0,0,0,0,0,0,0,0,0,0,0,0,0,0,0,0,0,0,0,0,0,0,0,0,0,0,0,0,0,0,0,0,0,0,0,0,0,0,0,0,0,0,0,0,0,0,0,0,0,0,0,0,0,0,0,0,0,0,0,0,0,0,0,0,0,0,0,0,0,0,0,0,0,0,0,0,0,0,0,0,0,0,0,0,0,0,0,0,0,0,0,0,0,0,0,0,0,0,0,0,0,0,0,0,0,0,0,0,0,0,0,0,0,0,0,0,0,0,0,0,0,0,0,0,0,0,0,0,0,0,0,0,0,0,0,0,0,0,0,0,0,0,0,0,0,0,0,0,0,0,0,0,0,0,0,0,0,0,0,0,0,0,0,0,0,0,0,0,0,0,0,0,0,0,0,0,0,0,0,0,0,0,0,0,0,0,0,0,0,0,0,0,0,0,0,0,0,0,0,0,0,0,0,0,0,0,0,0,0,0,0,0,0,0,0,0,0,0,0,0,0,0,0,0,0,0,0,0,0,0,0,0,0,0,0,0,0,0,0,0,0,0,0,0,0,0,0,0,0,0,0,0,0,0,0,0,0,0,0,0,0,0,0,0,0,0,0,0,0,0,0,0,0,0,0,0,0,0,0,0,0,0,0,0,0,0,0,0,0,0,0,0,0,0,0,0,0,0,0,0,0,0,0,0,0,0,0,0,0,0,0,0,0,0,0,0,0,0,0,0,0,0,0,0,0,0,0,0,0,0,0,0,0,0,0,0,0,0,0,0,0,0,0,0,0,0,0,0,0,0,0,0,0,0,0,0,0,0,0,0,0,0,0,0,0,0,0,0,0,0,0,0,0,0,0,0,0,0,0,0,0,0,0,0,0,0,0,0,0,0,0,0,0,0,0,0,0,0,0,0,0,0,0,0,0,0,0,0,0,0,0,0,0,0,0,0,0,0,0,0,0,0,0,0,0,0,0,0,0,0,0,0,0,0,0,0,0,0,0,0,0,0,0,0,0,0,0,0,0,0,0,0,0,0,0,0,0,0,0,0,0,0,0,0,0,0,0,0,0,0,0,0,0,0,0,0,0,0,0,0,0,0,0,0,0,0,0,0,0,0,0,0,0,0,0,0,0,0,0,0,0,0,0,0,0,0,0,0,0,0,0,0,0,0,0,0,0,0,0,0,0,0,0,0,0,0,0,0,0,0,0,0,0,0,0,0,0,0,0,0,0,0,0,0,0,0,0,0,0,0,0,0,0,0,0,0,0,0,0,0,0,0,0,0,0,0,0,0,0,0,0,0,0,0,0,0,0,0,0,0,0,0,0,0,0,0,0,0,0,0,0,0,0,0,0,0,0,0,0,0,0,0,0,0,0,0,0,0,0,0,0,0,0,0,0,0,0,0,0,0,0,0,0,0,0,0,0,0,0,0,0,0,0,0,0,0,0,0,0,0,0,0,0,0,0,0,0,0,0,0,0,0,0,0,0,0,0,0,0,0,0,0,0,0,0,0,0,0,0,0,0,0,0,0,0,0,0,0,0,0,0,0,0,0,0,0,0,0,0,0,0,0,0,0,0,0,0,0,0,0,0,0,0,0,0,0,0,0,0,0,0,0,0,0,0,0,0,0,0,0,0,0,0,0,0,0,0,0,0,0,0,0,0,0,0,0,0,0],"trees":[{"base_weights":[-8.3076265E-3,-1.4573401E0,2.023448E0,-3.2376155E-1,3.4741065E-1,4.158306E-1,2.0720263E0,-3.2374924E-1,3.497225E-1,1.3273164E0,3.497319E-1,3.4970662E-1,2.5977688E-2],"categories":[],"categories_nodes":[],"categories_segments":[],"categories_sizes":[],"default_left":[0,0,0,0,0,0,0,0,0,0,0,0,0],"id":0,"left_children":[1,3,5,-1,-1,7,9,-1,-1,11,-1,-1,-1],"loss_changes":[6.2292344E3,2.0384595E3,6.878711E1,0E0,0E0,1.00684654E2,5.21167E0,0E0,0E0,8.208803E0,0E0,0E0,0E0],"parents":[2147483647,0,0,1,1,2,2,5,5,6,6,9,9],"right_children":[2,4,6,-1,-1,8,10,-1,-1,12,-1,-1,-1],"split_conditions":[7.9954356E-1,2.9803095E0,9.6283543E-1,-3.2376155E-1,3.4741065E-1,2.9803095E0,1.0338265E0,-3.2374924E-1,3.497225E-1,9E0,3.497319E-1,3.4970662E-1,2.5977688E-2],"split_indices":[42,39,42,0,0,39,42,0,0,2,0,0,0],"split_type":[0,0,0,0,0,0,0,0,0,0,0,0,0],"sum_hessian":[2.11585E3,1.2350338E3,8.808164E2,1.0901266E3,1.4490715E2,2.5835493E1,8.5498096E2,1.0734015E1,1.5101479E1,9.298137E0,8.456828E2,5.6630545E0,3.6350827E0],"tree_param":{"num_deleted":"0","num_feature":"43","num_nodes":"13","size_leaf_vector":"1"}},{"base_weights":[3.8877216E-3,-1.2221612E0,2.9538628E-1,-1.5774075E0,-7.0581543E-1,-2.7951366E-1,-1.4414482E0,9.35641E-2,-8.4525895E-1,-2.7474993E-1,-1.8388318E-1,-2.8071102E-1,1.6874555E-1,1.13747835E-1,-1.586571E-1],"categories":[],"categories_nodes":[],"categories_segments":[],"categories_sizes":[],"default_left":[0,0,0,0,0,0,0,0,0,0,0,0,0,0,0],"id":1,"left_children":[1,3,-1,5,7,-1,9,11,13,-1,-1,-1,-1,-1,-1],"loss_changes":[4.4700615E3,2.2448438E2,0E0,8.39209E0,5.560135E1,0E0,1.8713379E1,1.1889725E2,6.362558E1,0E0,0E0,0E0,0E0,0E0,0E0],"parents":[2147483647,0,0,1,1,3,3,4,4,6,6,7,7,8,8],"right_children":[2,4,-1,6,8,-1,10,12,14,-1,-1,-1,-1,-1,-1],"split_conditions":[9.6283543E-1,1.0868957E-1,2.9538628E-1,4.276E3,1.06510515E1,-2.7951366E-1,3.0821566E-2,4.5686703E0,1E0,-2.7474993E-1,-1.8388318E-1,-2.8071102E-1,1.6874555E-1,1.13747835E-1,-1.586571E-1],"split_indices":[42,42,0,27,29,0,42,34,25,0,0,0,0,0,0],"split_type":[0,0,0,0,0,0,0,0,0,0,0,0,0,0,0],"sum_hessian":[2.0797188E3,1.2238177E3,8.5590094E2,7.250095E2,4.9880823E2,4.4581012E2,2.791994E2,7.408804E1,4.2472018E2,1.7961699E2,9.958241E1,2.5222788E1,4.8865253E1,2.5803116E1,3.9891705E2],"tree_param":{"num_deleted":"0","num_feature":"43","num_nodes":"15","size_leaf_vector":"1"}},{"base_weights":[1.0147744E-2,-1.0789765E0,1.5302489E0,-1.333498E0,-3.855091E-1,6.122914E-1,1.5595123E0,-1.4168891E0,-9.7234225E-1,-2.2886279E-1,-1.2838354E0,-2.63415E-1,1.0401243E0,1.1678969E0,2.633951E-1,-1.4813276E-1,-2.4252616E-1,2.1715838E-1,-1.8395802E-1,-5.4907378E-2,2.746628E-1,-2.4999228E-1,-2.0553712E-2,-1.939334E-2,2.267723E-1,7.989779E-2,2.4139588E-1],"categories":[],"categories_nodes":[],"categories_segments":[],"categories_sizes":[],"default_left":[0,0,0,0,0,0,0,0,0,0,0,0,0,0,0,0,0,0,0,0,0,0,0,0,0,0,0],"id":2,"left_children":[1,3,5,7,9,11,13,15,17,19,21,-1,23,25,-1,-1,-1,-1,-1,-1,-1,-1,-1,-1,-1,-1,-1],"loss_changes":[3.2379075E3,2.011062E2,2.1929077E1,2.5101562E1,4.304775E1,2.351408E1,2.2200928E0,9.309814E0,4.3131332E1,4.741561E1,1.0717255E1,0E0,7.520607E0,2.6391277E0,0E0,0E0,0E0,0E0,0E0,0E0,0E0,0E0,0E0,0E0,0E0,0E0,0E0],"parents":[2147483647,0,0,1,1,2,2,3,3,4,4,5,5,6,6,7,7,8,8,9,9,10,10,12,12,13,13],"right_children":[2,4,6,8,10,12,14,16,18,20,22,-1,24,26,-1,-1,-1,-1,-1,-1,-1,-1,-1,-1,-1,-1,-1],"split_conditions":[7.9954356E-1,1.9414365E-1,9.6283543E-1,1.0868957E-1,2.6891892E0,1.377E3,1.0338265E0,1.6452964E-7,1.1143715E-3,1.8598131E0,6.196029E-1,-2.63415E-1,4.0202022E-1,6.27E2,2.633951E-1,-1.4813276E-1,-2.4252616E-1,2.1715838E-1,-1.8395802E-1,-5.4907378E-2,2.746628E-1,-2.4999228E-1,-2.0553712E-2,-1.939334E-2,2.267723E-1,7.989779E-2,2.4139588E-1],"split_indices":[42,42,42,42,28,27,42,31,31,28,42,0,28,27,0,0,0,0,0,0,0,0,0,0,0,0,0],"split_type":[0,0,0,0,0,0,0,0,0,0,0,0,0,0,0,0,0,0,0,0,0,0,0,0,0,0,0],"sum_hessian":[1.9557546E3,1.1393976E3,8.163571E2,8.334853E2,3.0591226E2,2.522084E1,7.911363E2,6.771335E2,1.5635182E2,2.604897E2,4.542256E1,4.138914E0,2.1081926E1,1.42217E1,7.769146E2,3.095019E1,6.461833E2,7.9846225E0,1.4836719E2,2.4750366E2,1.2986027E1,3.8661705E1,6.760858E0,4.4451194E0,1.6636806E1,3.9670796E0,1.025462E1],"tree_param":{"num_deleted":"0","num_feature":"43","num_nodes":"27","size_leaf_vector":"1"}},{"base_weights":[1.8069034E-2,-1.015711E0,1.3551792E0,-1.4401308E0,1.8840911E0,5.102128E-1,2.4133371E-1,-2.3607247E-1,-2.5390393E-1,3.664466E-1,3.060301E-1,-9.661482E-1,3.0412498E-1,-2.6005575E-1,9.547499E-2],"categories":[],"categories_nodes":[],"categories_segments":[],"categories_sizes":[],"default_left":[0,0,0,0,0,0,0,0,0,0,0,0,0,0,0],"id":3,"left_children":[1,3,5,7,9,11,-1,-1,-1,-1,-1,13,-1,-1,-1],"loss_changes":[2.5352131E3,1.2730321E3,5.424707E1,2.2738037E0,2.4891357E0,1.3304558E2,0E0,0E0,0E0,0E0,0E0,2.8926905E1,0E0,0E0,0E0],"parents":[2147483647,0,0,1,1,2,2,3,3,4,4,5,5,11,11],"right_children":[2,4,6,8,10,12,-1,-1,-1,-1,-1,14,-1,-1,-1],"split_conditions":[6.196029E-1,2.9803095E0,1.0338265E0,1.0868957E-1,9.682594E-2,2.9803095E0,2.4133371E-1,-2.3607247E-1,-2.5390393E-1,3.664466E-1,3.060301E-1,9.6283543E-1,3.0412498E-1,-2.6005575E-1,9.547499E-2],"split_indices":[42,39,42,42,42,39,0,0,0,0,0,42,0,0,0],"split_type":[0,0,0,0,0,0,0,0,0,0,0,0,0,0,0],"sum_hessian":[1.8340829E3,1.0343672E3,7.997157E2,9.023046E2,1.320626E2,6.938798E1,7.303277E2,5.963342E2,3.0597037E2,2.344996E1,1.0861265E2,3.24733E1,3.6914677E1,2.3556574E1,8.916728E0],"tree_param":{"num_deleted":"0","num_feature":"43","num_nodes":"15","size_leaf_vector":"1"}},{"base_weights":[-1.626989E-2,-9.626929E-1,1.2442691E0,-1.2071588E0,-5.8566254E-1,3.5496232E-1,2.2563578E-1,-5.893539E-1,-1.2417048E0,1.516643E-1,-7.09473E-1,-2.5969234E-1,8.704183E-1,-2.0526601E-1,2.6162916E-1,-1.7005019E-1,-2.1510068E-1,-1.7332399E-1,1.5943336E-1,-8.712336E-2,-2.0654793E-1,6.2582664E-2,-1.3404627E-1,2.2177157E-1,1.06429026E-1],"categories":[],"categories_nodes":[],"categories_segments":[],"categories_sizes":[],"default_left":[0,0,0,0,0,0,0,0,0,0,0,0,0,0,0,0,0,0,0,0,0,0,0,0,0],"id":4,"left_children":[1,3,5,7,9,11,-1,13,15,17,19,21,23,-1,-1,-1,-1,-1,-1,-1,-1,-1,-1,-1,-1],"loss_changes":[1.9624419E3,8.659827E1,6.1364014E1,1.2164429E1,3.37377E1,2.214725E1,0E0,4.090237E1,4.687317E0,5.0060272E1,3.1415329E1,1.0832321E1,4.048977E0,0E0,0E0,0E0,0E0,0E0,0E0,0E0,0E0,0E0,0E0,0E0,0E0],"parents":[2147483647,0,0,1,1,2,2,3,3,4,4,5,5,7,7,8,8,9,9,10,10,11,11,12,12],"right_children":[2,4,6,8,10,12,-1,14,16,18,20,22,24,-1,-1,-1,-1,-1,-1,-1,-1,-1,-1,-1,-1],"split_conditions":[5.9464586E-1,1.0868957E-1,1.0338265E0,1.6452964E-7,1.06510515E1,1.3148033E1,2.2563578E-1,3.4410518E-2,1E0,1.0841559E1,1.2283951E0,1E0,1.3865954E1,-2.0526601E-1,2.6162916E-1,-1.7005019E-1,-2.1510068E-1,-1.7332399E-1,1.5943336E-1,-8.712336E-2,-2.0654793E-1,6.2582664E-2,-1.3404627E-1,2.2177157E-1,1.06429026E-1],"split_indices":[42,42,42,31,29,26,0,42,16,26,28,23,29,0,0,0,0,0,0,0,0,0,0,0,0],"split_type":[0,0,0,0,0,0,0,0,0,0,0,0,0,0,0,0,0,0,0,0,0,0,0,0,0],"sum_hessian":[1.6449586E3,9.3954254E2,7.054161E2,5.699724E2,3.695701E2,6.990248E1,6.355136E2,3.0183954E1,5.3978845E2,5.313512E1,3.1643497E2,3.1883377E1,3.80191E1,2.3319613E1,6.8643417E0,7.5984146E1,4.6380432E2,2.1386875E1,3.1748245E1,2.312345E2,8.520048E1,1.46561365E1,1.7227242E1,1.3153905E1,2.4865196E1],"tree_param":{"num_deleted":"0","num_feature":"43","num_nodes":"25","size_leaf_vector":"1"}},{"base_weights":[1.2685985E-2,1.2589098E0,-4.4210318E-1,-3.3091433E-2,2.1401864E-1,-9.2278785E-1,2.611978E-1,4.412918E-1,-1.136968E0,-1.9791602E-1,1.385462E-1,-9.335939E-2,-2.0540729E-1],"categories":[],"categories_nodes":[],"categories_segments":[],"categories_sizes":[],"default_left":[0,0,0,0,0,0,0,0,0,0,0,0,0],"id":5,"left_children":[1,3,5,-1,-1,7,-1,9,11,-1,-1,-1,-1],"loss_changes":[8.6432056E2,8.35614E0,1.0718052E3,0E0,0E0,2.6305975E2,0E0,7.570174E1,3.8384644E1,0E0,0E0,0E0,0E0],"parents":[2147483647,0,0,1,1,2,2,5,5,7,7,8,8],"right_children":[2,4,6,-1,-1,8,-1,10,12,-1,-1,-1,-1],"split_conditions":[1.82E2,1.76E2,2.9803095E0,-3.3091433E-2,2.1401864E-1,6.5353036E-2,2.611978E-1,3.468353E-2,6.71E2,-1.9791602E-1,1.385462E-1,-9.335939E-2,-2.0540729E-1],"split_indices":[27,33,39,0,0,28,0,39,27,0,0,0,0],"split_type":[0,0,0,0,0,0,0,0,0,0,0,0,0],"sum_hessian":[1.5249951E3,4.0772818E2,1.117267E3,3.9052432E0,4.0382294E2,9.003985E2,2.1686842E2,1.2218987E2,7.782086E2,2.3370993E1,9.881888E1,9.901798E1,6.791906E2],"tree_param":{"num_deleted":"0","num_feature":"43","num_nodes":"13","size_leaf_vector":"1"}},{"base_weights":[-1.9676259E-2,1.2066193E0,-4.3563405E-1,-4.865214E-2,2.0515844E-1,-8.612789E-1,2.4045883E-1,2.847001E-1,-1.0371208E0,-2.2033033E-1,1.4569865E-1,-6.114416E-2,-1.9195224E-1],"categories":[],"categories_nodes":[],"categories_segments":[],"categories_sizes":[],"default_left":[0,0,0,0,0,0,0,0,0,0,0,0,0],"id":6,"left_children":[1,3,5,-1,-1,7,-1,9,11,-1,-1,-1,-1],"loss_changes":[6.810421E2,6.9149475E0,7.9180457E2,0E0,0E0,1.6358514E2,0E0,1.00249756E2,4.958368E1,0E0,0E0,0E0,0E0],"parents":[2147483647,0,0,1,1,2,2,5,5,7,7,8,8],"right_children":[2,4,6,-1,-1,8,-1,10,12,-1,-1,-1,-1],"split_conditions":[1.82E2,6.548689E0,2.9803095E0,-4.865214E-2,2.0515844E-1,6.5353036E-2,2.4045883E-1,5.741323E0,6.71E2,-2.2033033E-1,1.4569865E-1,-6.114416E-2,-1.9195224E-1],"split_indices":[27,34,39,0,0,28,0,34,27,0,0,0,0],"split_type":[0,0,0,0,0,0,0,0,0,0,0,0,0],"sum_hessian":[1.3351478E3,3.3817242E2,9.969754E2,3.0616283E0,3.351108E2,8.1179065E2,1.8518471E2,1.0799256E2,7.037981E2,2.8864634E1,7.912793E1,9.463215E1,6.0916595E2],"tree_param":{"num_deleted":"0","num_feature":"43","num_nodes":"13","size_leaf_vector":"1"}},{"base_weights":[1.2260498E-2,-7.488454E-1,2.010962E-1,-2.0356302E-1,2.3536445E-1],"categories":[],"categories_nodes":[],"categories_segments":[],"categories_sizes":[],"default_left":[0,0,0,0,0],"id":7,"left_children":[1,3,-1,-1,-1],"loss_changes":[1.1078636E3,7.428849E2,0E0,0E0,0E0],"parents":[2147483647,0,0,1,1],"right_children":[2,4,-1,-1,-1],"split_conditions":[9.6283543E-1,2.9803095E0,2.010962E-1,-2.0356302E-1,2.3536445E-1],"split_indices":[42,39,0,0,0],"split_type":[0,0,0,0,0],"sum_hessian":[1.2295294E3,7.4839E2,4.811394E2,6.159683E2,1.3242168E2],"tree_param":{"num_deleted":"0","num_feature":"43","num_nodes":"5","size_leaf_vector":"1"}},{"base_weights":[-2.4492072E-2,-7.599772E-1,1.9479355E-1,-9.503247E-1,-2.2714901E-1,-1.0631032E0,-8.083101E-1,-4.127671E-2,-7.410803E-1,-1.8149321E-1,3.812043E-2,-1.4525436E-1,9.014484E-2,3.438215E-2,-8.546679E-2,-2.0074163E-1,-3.6848627E-2],"categories":[],"categories_nodes":[],"categories_segments":[],"categories_sizes":[],"default_left":[0,0,0,0,0,0,0,0,0,0,0,0,0,0,0,0,0],"id":8,"left_children":[1,3,-1,5,7,9,11,13,15,-1,-1,-1,-1,-1,-1,-1,-1],"loss_changes":[9.1083E2,6.546509E1,0E0,7.616516E0,1.62293E1,5.6150208E0,1.5755005E1,1.432374E1,1.06669655E1,0E0,0E0,0E0,0E0,0E0,0E0,0E0,0E0],"parents":[2147483647,0,0,1,1,3,3,4,4,5,5,6,6,7,7,8,8],"right_children":[2,4,-1,6,8,10,12,14,16,-1,-1,-1,-1,-1,-1,-1,-1],"split_conditions":[9.6283543E-1,2.4532895E-1,1.9479355E-1,6.1056364E-2,9.694264E-2,8.094211E0,1E0,2.2993028E0,1.7821721E0,-1.8149321E-1,3.812043E-2,-1.4525436E-1,9.014484E-2,3.438215E-2,-8.546679E-2,-2.0074163E-1,-3.6848627E-2],"split_indices":[42,42,0,42,37,36,21,30,30,0,0,0,0,0,0,0,0],"split_type":[0,0,0,0,0,0,0,0,0,0,0,0,0,0,0,0,0],"sum_hessian":[1.0467213E3,6.454693E2,4.0125208E2,4.7557468E2,1.698946E2,2.6507068E2,2.1050398E2,1.2476986E2,4.5124756E1,2.6173822E2,3.332457E0,2.021351E2,8.36889E0,8.175163E1,4.3018223E1,2.4158335E1,2.0966421E1],"tree_param":{"num_deleted":"0","num_feature":"43","num_nodes":"17","size_leaf_vector":"1"}},{"base_weights":[1.1092921E-2,-6.671011E-1,1.1093998E0,-8.858774E-1,-1.3831212E-1,2.8090146E-1,1.9134027E-1,-1.0621217E0,-7.097185E-1,6.635574E-2,-5.645938E-1,6.407236E-1,-2.4331719E-1,-1.8024433E-1,-5.870491E-3,1.2209729E-1,-1.3227971E-1,-1.2569228E-1,5.015603E-2,1.0354727E-2,-1.2940072E-1,-1.7591076E-1,1.7852788E-1],"categories":[],"categories_nodes":[],"categories_segments":[],"categories_sizes":[],"default_left":[0,0,0,0,0,0,0,0,0,0,0,0,0,0,0,0,0,0,0,0,0,0,0],"id":9,"left_children":[1,3,5,7,9,11,-1,13,15,17,19,21,-1,-1,-1,-1,-1,-1,-1,-1,-1,-1,-1],"loss_changes":[7.1617914E2,6.87677E1,8.726654E0,1.3054047E1,1.51775465E1,7.6417985E0,0E0,2.1537628E0,2.3276909E1,2.2192686E1,7.246809E0,7.2273364E0,0E0,0E0,0E0,0E0,0E0,0E0,0E0,0E0,0E0,0E0,0E0],"parents":[2147483647,0,0,1,1,2,2,3,3,4,4,5,5,7,7,8,8,9,9,10,10,11,11],"right_children":[2,4,6,8,10,12,-1,14,16,18,20,22,-1,-1,-1,-1,-1,-1,-1,-1,-1,-1,-1],"split_conditions":[8.760908E-1,2.2469597E-1,1.0338265E0,5.330088E-2,6.649539E-2,2.165315E0,1.9134027E-1,9.170614E0,1.1143715E-3,7.205848E0,1.0973843E1,6.2531705E0,-2.4331719E-1,-1.8024433E-1,-5.870491E-3,1.2209729E-1,-1.3227971E-1,-1.2569228E-1,5.015603E-2,1.0354727E-2,-1.2940072E-1,-1.7591076E-1,1.7852788E-1],"split_indices":[42,42,42,42,37,38,0,38,31,34,29,34,0,0,0,0,0,0,0,0,0,0,0],"split_type":[0,0,0,0,0,0,0,0,0,0,0,0,0,0,0,0,0,0,0,0,0,0,0],"sum_hessian":[9.614875E2,5.944317E2,3.6705576E2,4.2047003E2,1.739617E2,1.2288223E1,3.5476752E2,2.1018295E2,2.1028708E2,1.175321E2,5.6429604E1,1.0170808E1,2.117416E0,2.0816133E2,2.0216174E0,1.0713245E1,1.9957384E2,2.6066364E1,9.146573E1,1.3921969E1,4.2507633E1,2.0317328E0,8.139074E0],"tree_param":{"num_deleted":"0","num_feature":"43","num_nodes":"23","size_leaf_vector":"1"}},{"base_weights":[9.450995E-3,-5.9922636E-1,1.0932881E0,-1.9128768E-1,2.275249E-1,4.3748274E-1,1.872278E-1,-1.6102771E-1,8.404919E-1,-6.504028E-2,2.3321693E-1],"categories":[],"categories_nodes":[],"categories_segments":[],"categories_sizes":[],"default_left":[0,0,0,0,0,0,0,0,0,0,0],"id":10,"left_children":[1,3,5,-1,-1,7,-1,-1,9,-1,-1],"loss_changes":[5.667254E2,5.784791E2,4.1222534E0,0E0,0E0,5.2284737E0,0E0,0E0,4.8407903E0,0E0,0E0],"parents":[2147483647,0,0,1,1,2,2,5,5,8,8],"right_children":[2,4,6,-1,-1,8,-1,-1,10,-1,-1],"split_conditions":[9.6283543E-1,2.9803095E0,1.0338265E0,-1.9128768E-1,2.275249E-1,3.9787203E-1,1.872278E-1,-1.6102771E-1,6.2531705E0,-6.504028E-2,2.3321693E-1],"split_indices":[42,39,42,0,0,32,0,0,34,0,0],"split_type":[0,0,0,0,0,0,0,0,0,0,0],"sum_hessian":[8.590553E2,5.5011414E2,3.089411E2,4.3118405E2,1.18930115E2,9.297212E0,2.996439E2,2.0834394E0,7.213772E0,2.2230241E0,4.990748E0],"tree_param":{"num_deleted":"0","num_feature":"43","num_nodes":"11","size_leaf_vector":"1"}},{"base_weights":[5.408803E-3,1.0659693E0,-3.0094615E-1,4.9567387E-2,1.820344E-1,1.0919779E-1,-4.2349645E-1,-7.2495645E-1,4.2854285E-1,-1.4139229E-1,-5.141528E-1,-7.253689E-2,-1.5179376E-1,-9.99397E-2,9.2403375E-2,-8.61401E-2,2.4711968E-2,-5.7765488E-2,-1.3014178E-1],"categories":[],"categories_nodes":[],"categories_segments":[],"categories_sizes":[],"default_left":[0,0,0,0,0,0,0,0,0,0,0,0,0,0,0,0,0,0,0],"id":11,"left_children":[1,3,5,-1,-1,7,9,11,13,15,17,-1,-1,-1,-1,-1,-1,-1,-1],"loss_changes":[2.4350807E2,2.1727905E0,2.922792E1,0E0,0E0,3.5636272E1,1.1450157E1,1.9338474E0,1.1982351E1,1.1648819E1,1.502195E1,0E0,0E0,0E0,0E0,0E0,0E0,0E0,0E0],"parents":[2147483647,0,0,1,1,2,2,5,5,6,6,7,7,8,8,9,9,10,10],"right_children":[2,4,6,-1,-1,8,10,12,14,16,18,-1,-1,-1,-1,-1,-1,-1,-1],"split_conditions":[1.82E2,1.76E2,1.2384223E1,4.9567387E-2,1.820344E-1,9.586421E0,9.988044E-3,6.1693823E-1,6.6046545E-4,6.6046545E-4,1.4599413E1,-7.253689E-2,-1.5179376E-1,-9.99397E-2,9.2403375E-2,-8.61401E-2,2.4711968E-2,-5.7765488E-2,-1.3014178E-1],"split_indices":[27,33,26,0,0,29,37,36,37,37,26,0,0,0,0,0,0,0,0],"split_type":[0,0,0,0,0,0,0,0,0,0,0,0,0,0,0,0,0,0,0],"sum_hessian":[7.4946704E2,1.6797134E2,5.8149567E2,3.576472E0,1.6439487E2,1.3377744E2,4.4771823E2,3.703599E1,9.674145E1,1.08886566E2,3.3883167E2,1.3978083E1,2.3057909E1,1.0237853E1,8.650359E1,4.7623497E1,6.1263065E1,2.0458727E2,1.342444E2],"tree_param":{"num_deleted":"0","num_feature":"43","num_nodes":"19","size_leaf_vector":"1"}},{"base_weights":[2.7231254E-2,-5.412072E-1,1.0259606E0,-1.8617024E-1,2.2038561E-1,3.9350867E-1,1.8295039E-1,-3.359011E-1,2.0045215E-1,-2.030596E-1,8.0442704E-2],"categories":[],"categories_nodes":[],"categories_segments":[],"categories_sizes":[],"default_left":[0,0,0,0,0,0,0,0,0,0,0],"id":12,"left_children":[1,3,5,-1,-1,7,-1,9,-1,-1,-1],"loss_changes":[4.0465765E2,4.7628616E2,1.017569E1,0E0,0E0,1.3495058E1,0E0,8.596766E0,0E0,0E0,0E0],"parents":[2147483647,0,0,1,1,2,2,5,5,7,7],"right_children":[2,4,6,-1,-1,8,-1,10,-1,-1,-1],"split_conditions":[7.9954356E-1,2.9803095E0,1.0338265E0,-1.8617024E-1,2.2038561E-1,2.8544915E0,1.8295039E-1,9.6283543E-1,2.0045215E-1,-2.030596E-1,8.0442704E-2],"split_indices":[42,39,42,0,0,39,0,42,0,0,0],"split_type":[0,0,0,0,0,0,0,0,0,0,0],"sum_hessian":[7.127808E2,4.542432E2,2.5853763E2,3.478982E2,1.0634502E2,2.3161139E1,2.353765E2,1.210641E1,1.1054729E1,5.8466163E0,6.2597938E0],"tree_param":{"num_deleted":"0","num_feature":"43","num_nodes":"11","size_leaf_vector":"1"}},{"base_weights":[9.03097E-3,-5.7985497E-1,1.025254E0,-1.830781E-1,2.069344E-1,2.5807342E-1,1.7919722E-1,-1.9748507E-1,1.968367E-1],"categories":[],"categories_nodes":[],"categories_segments":[],"categories_sizes":[],"default_left":[0,0,0,0,0,0,0,0,0],"id":13,"left_children":[1,3,5,-1,-1,7,-1,-1,-1],"loss_changes":[3.641902E2,3.55175E2,6.956894E0,0E0,0E0,1.4681077E1,0E0,0E0,0E0],"parents":[2147483647,0,0,1,1,2,2,5,5],"right_children":[2,4,6,-1,-1,8,-1,-1,-1],"split_conditions":[7.9954356E-1,2.9803095E0,9.6283543E-1,-1.830781E-1,2.069344E-1,2.9803095E0,1.7919722E-1,-1.9748507E-1,1.968367E-1],"split_indices":[42,39,42,0,0,39,0,0,0],"split_type":[0,0,0,0,0,0,0,0,0],"sum_hessian":[6.085656E2,3.8529382E2,2.2327179E2,3.007384E2,8.455542E1,1.1226099E1,2.120457E2,4.3685374E0,6.8575616E0],"tree_param":{"num_deleted":"0","num_feature":"43","num_nodes":"9","size_leaf_vector":"1"}},{"base_weights":[1.2904341E-2,1.0214298E0,-2.3331107E-1,-3.8483184E-2,1.7619559E-1,-1.7324324E-1,-1.3657454E-1,2.1379893E-1,-3.650416E-1,8.064736E-2,-2.7859058E-2,-7.7228144E-2,1.04949914E-1],"categories":[],"categories_nodes":[],"categories_segments":[],"categories_sizes":[],"default_left":[0,0,0,0,0,0,0,0,0,0,0,0,0],"id":14,"left_children":[1,3,5,-1,-1,-1,7,9,11,-1,-1,-1,-1],"loss_changes":[1.3074323E2,3.4345245E0,3.2634438E1,0E0,0E0,0E0,3.0210861E1,1.5031408E1,2.1314596E1,0E0,0E0,0E0,0E0],"parents":[2147483647,0,0,1,1,2,2,6,6,7,7,8,8],"right_children":[2,4,6,-1,-1,-1,8,10,12,-1,-1,-1,-1],"split_conditions":[1.82E2,2E2,4.35251E0,-3.8483184E-2,1.7619559E-1,-1.7324324E-1,7.3402274E-1,5E0,1.27225E1,8.064736E-2,-2.7859058E-2,-7.7228144E-2,1.04949914E-1],"split_indices":[27,33,34,0,0,0,40,25,34,0,0,0,0],"split_type":[0,0,0,0,0,0,0,0,0,0,0,0,0],"sum_hessian":[5.265219E2,1.03318146E2,4.2320374E2,2.1510475E0,1.011671E2,4.5799053E1,3.774047E2,1.4896078E2,2.2844391E2,8.759139E1,6.13694E1,2.0856105E2,1.9882854E1],"tree_param":{"num_deleted":"0","num_feature":"43","num_nodes":"13","size_leaf_vector":"1"}},{"base_weights":[7.4479575E-3,1.7489128E-1,-2.1774152E-1,6.710942E-2,-4.095191E-1,-5.2723813E-1,3.1684574E-1,5.854625E-1,-4.580121E-1,-1.5827088E-1,-4.3855604E-2,1.191358E-1,9.701936E-3,1.581461E-1,-2.3862546E-2,-5.599746E-2,-1.2045695E-1],"categories":[],"categories_nodes":[],"categories_segments":[],"categories_sizes":[],"default_left":[0,0,0,0,0,0,0,0,0,0,0,0,0,0,0,0,0],"id":15,"left_children":[1,-1,3,5,7,9,11,13,15,-1,-1,-1,-1,-1,-1,-1,-1],"loss_changes":[1.1332212E2,0E0,2.1852543E1,2.389067E1,1.1535122E1,5.2537613E0,1.1506163E1,2.8706136E0,7.3612785E0,0E0,0E0,0E0,0E0,0E0,0E0,0E0,0E0],"parents":[2147483647,0,0,2,2,3,3,4,4,5,5,6,6,7,7,8,8],"right_children":[2,-1,4,6,8,10,12,14,16,-1,-1,-1,-1,-1,-1,-1,-1],"split_conditions":[7.2800083E0,1.7489128E-1,3.3888575E-1,2.5414128E-2,9.809232E0,1.3230284E1,2E0,6.773538E-2,1.4599413E1,-1.5827088E-1,-4.3855604E-2,1.191358E-1,9.701936E-3,1.581461E-1,-2.3862546E-2,-5.599746E-2,-1.2045695E-1],"split_indices":[26,0,41,41,26,29,25,37,26,0,0,0,0,0,0,0,0],"split_type":[0,0,0,0,0,0,0,0,0,0,0,0,0,0,0,0,0],"sum_hessian":[4.8724298E2,8.721921E1,4.0002377E2,1.6095477E2,2.39069E2,4.7621014E1,1.1333376E2,1.1109938E1,2.2795906E2,1.8639755E1,2.8981258E1,4.5119446E1,6.821432E1,7.4647393E0,3.6451988E0,1.5367639E2,7.428268E1],"tree_param":{"num_deleted":"0","num_feature":"43","num_nodes":"17","size_leaf_vector":"1"}},{"base_weights":[1.181726E-2,-3.4030017E-1,1.988768E-1,6.165033E-1,-8.229525E-1,-9.042208E-1,9.909419E-1,-8.5679704E-1,1.5548572E-1,-1.7566814E-1,-3.7144028E-2,-7.293385E-2,1.7183529E-1,-9.690038E-2,-1.6492885E-1],"categories":[],"categories_nodes":[],"categories_segments":[],"categories_sizes":[],"default_left":[0,0,0,0,0,0,0,0,0,0,0,0,0,0,0],"id":16,"left_children":[1,3,-1,5,7,9,11,13,-1,-1,-1,-1,-1,-1,-1],"loss_changes":[1.8741133E2,1.6136234E2,0E0,6.671365E1,1.3739029E1,2.2246628E0,4.1710434E0,7.9357452E0,0E0,0E0,0E0,0E0,0E0,0E0,0E0],"parents":[2147483647,0,0,1,1,3,3,4,4,5,5,6,6,7,7],"right_children":[2,4,-1,6,8,10,12,14,-1,-1,-1,-1,-1,-1,-1],"split_conditions":[2.9803095E0,1.0529452E1,1.988768E-1,5.127214E0,1.3889313E1,6.658165E-1,3.947985E-2,1.3148033E1,1.5548572E-1,-1.7566814E-1,-3.7144028E-2,-7.293385E-2,1.7183529E-1,-9.690038E-2,-1.6492885E-1],"split_indices":[39,26,0,34,34,39,39,26,0,0,0,0,0,0,0],"split_type":[0,0,0,0,0,0,0,0,0,0,0,0,0,0,0],"sum_hessian":[4.5447607E2,3.4941693E2,1.0505914E2,1.1716015E2,2.322568E2,2.314791E1,9.401224E1,2.2784497E2,4.4118323E0,1.9196087E1,3.9518228E0,2.0106096E0,9.2001625E1,6.9938286E1,1.5790668E2],"tree_param":{"num_deleted":"0","num_feature":"43","num_nodes":"15","size_leaf_vector":"1"}},{"base_weights":[1.0520619E-2,-3.2022145E-1,1.907431E-1,9.9476254E-1,-6.397509E-1,7.818376E-3,1.7290755E-1,1.4498487E-1,-7.718966E-1,-1.9298193E-1,1.1220782E-1,-3.2701354E-2,-1.5088262E-1],"categories":[],"categories_nodes":[],"categories_segments":[],"categories_sizes":[],"default_left":[0,0,0,0,0,0,0,0,0,0,0,0,0],"id":17,"left_children":[1,3,-1,5,7,-1,-1,9,11,-1,-1,-1,-1],"loss_changes":[1.5015872E2,1.3112947E2,0E0,1.9493294E0,2.603621E1,0E0,0E0,2.4441309E1,1.55781555E1,0E0,0E0,0E0,0E0],"parents":[2147483647,0,0,1,1,3,3,4,4,7,7,8,8],"right_children":[2,4,-1,6,8,-1,-1,10,12,-1,-1,-1,-1],"split_conditions":[2.9803095E0,1.82E2,1.907431E-1,8.701331E0,6.5353036E-2,7.818376E-3,1.7290755E-1,5.741323E0,6.71E2,-1.9298193E-1,1.1220782E-1,-3.2701354E-2,-1.5088262E-1],"split_indices":[39,27,0,34,28,0,0,34,27,0,0,0,0],"split_type":[0,0,0,0,0,0,0,0,0,0,0,0,0],"sum_hessian":[4.0391013E2,3.120811E2,9.182903E1,6.1008263E1,2.5107283E2,2.0935357E0,5.8914726E1,3.6185894E1,2.1488693E2,1.0414025E1,2.577187E1,3.8382313E1,1.7650462E2],"tree_param":{"num_deleted":"0","num_feature":"43","num_nodes":"13","size_leaf_vector":"1"}},{"base_weights":[2.327115E-2,-3.2354683E-1,1.0373307E0,6.218129E-1,-8.104089E-1,3.8311538E-1,1.8746324E-1,-8.373875E-1,9.481193E-1,-8.6895424E-1,8.188679E-2,-1.4323495E-1,1.283343E-1,5.595559E-2,-1.801703E-1,5.1782597E-2,1.7373429E-1,-6.593561E-2,-1.613437E-1,2.0968181E-1,-9.290906E-2],"categories":[],"categories_nodes":[],"categories_segments":[],"categories_sizes":[],"default_left":[0,0,0,0,0,0,0,0,0,0,0,0,0,0,0,0,0,0,0,0,0],"id":18,"left_children":[1,3,5,7,9,11,-1,13,15,17,19,-1,-1,-1,-1,-1,-1,-1,-1,-1,-1],"loss_changes":[1.2914522E2,1.2593933E2,4.7571716E0,4.4289223E1,9.435135E0,4.6662054E0,0E0,4.6603556E0,4.1483917E0,7.330879E0,8.22316E0,0E0,0E0,0E0,0E0,0E0,0E0,0E0,0E0,0E0,0E0],"parents":[2147483647,0,0,1,1,2,2,3,3,4,4,5,5,7,7,8,8,9,9,10,10],"right_children":[2,4,6,8,10,12,-1,14,16,18,20,-1,-1,-1,-1,-1,-1,-1,-1,-1,-1],"split_conditions":[2.5538015E0,1.0529452E1,2.9803095E0,4.702635E0,1.27225E1,8.426623E0,1.8746324E-1,8.2943E0,5.741323E0,6.71E2,1.7749294E1,-1.4323495E-1,1.283343E-1,5.595559E-2,-1.801703E-1,5.1782597E-2,1.7373429E-1,-6.593561E-2,-1.613437E-1,2.0968181E-1,-9.290906E-2],"split_indices":[39,26,39,34,34,34,0,26,34,27,26,0,0,0,0,0,0,0,0,0,0],"split_type":[0,0,0,0,0,0,0,0,0,0,0,0,0,0,0,0,0,0,0,0,0],"sum_hessian":[3.6720813E2,2.736258E2,9.358235E1,9.301489E1,1.806109E2,9.935537E0,8.364681E1,1.6998613E1,7.601627E1,1.6949031E2,1.1120593E1,2.338567E0,7.5969706E0,2.8353574E0,1.4163256E1,8.934795E0,6.708148E1,2.7095987E1,1.4239432E2,3.9203486E0,7.2002444E0],"tree_param":{"num_deleted":"0","num_feature":"43","num_nodes":"21","size_leaf_vector":"1"}},{"base_weights":[3.65512E-2,-2.503395E-1,1.8393543E-1,1.7152384E-1,-5.041193E-1,-1.7168872E-1,-7.903439E-1,-9.118894E-2,1.5425363E-1,-1.6296557E-1,5.715911E-2],"categories":[],"categories_nodes":[],"categories_segments":[],"categories_sizes":[],"default_left":[0,0,0,0,0,0,0,0,0,0,0],"id":19,"left_children":[1,3,-1,-1,5,7,9,-1,-1,-1,-1],"loss_changes":[9.8373886E1,8.224193E1,0E0,0E0,2.022826E1,3.9714428E1,2.3110703E1,0E0,0E0,0E0,0E0],"parents":[2147483647,0,0,1,1,4,4,5,5,6,6],"right_children":[2,4,-1,-1,6,8,10,-1,-1,-1,-1],"split_conditions":[2.9803095E0,7.2800083E0,1.8393543E-1,1.7152384E-1,1.3148033E1,7.9400826E0,1.27225E1,-9.118894E-2,1.5425363E-1,-1.6296557E-1,5.715911E-2],"split_indices":[39,26,0,0,26,34,34,0,0,0,0],"split_type":[0,0,0,0,0,0,0,0,0,0,0],"sum_hessian":[3.2425107E2,2.5505673E2,6.9194336E1,4.246272E1,2.1259401E2,9.835824E1,1.1423578E2,7.3382744E1,2.4975496E1,9.862007E1,1.5615704E1],"tree_param":{"num_deleted":"0","num_feature":"43","num_nodes":"11","size_leaf_vector":"1"}},{"base_weights":[3.1212736E-2,-2.4253501E-1,1.7570433E-1,5.8835787E-1,-6.623968E-1,-5.774628E-1,1.661369E-1,-9.865222E-1,-3.8953197E-1,-1.6584884E-1,8.4852904E-2,-2.4692826E-2,-1.754297E-1,1.0312914E-1,-1.1892792E-1],"categories":[],"categories_nodes":[],"categories_segments":[],"categories_sizes":[],"default_left":[0,0,0,0,0,0,0,0,0,0,0,0,0,0,0],"id":20,"left_children":[1,3,-1,5,7,9,-1,11,13,-1,-1,-1,-1,-1,-1],"loss_changes":[8.071531E1,7.9885345E1,0E0,3.5830963E1,1.3453758E1,8.689098E0,0E0,3.3239517E0,2.6329723E1,0E0,0E0,0E0,0E0,0E0,0E0],"parents":[2147483647,0,0,1,1,3,3,4,4,5,5,7,7,8,8],"right_children":[2,4,-1,6,8,10,-1,12,14,-1,-1,-1,-1,-1,-1],"split_conditions":[2.9803095E0,1.0529452E1,1.7570433E-1,5.368379E0,7.7650995E0,6.658165E-1,1.661369E-1,8.2E1,1.3148033E1,-1.6584884E-1,8.4852904E-2,-2.4692826E-2,-1.754297E-1,1.0312914E-1,-1.1892792E-1],"split_indices":[39,26,0,34,34,39,0,33,26,0,0,0,0,0,0],"split_type":[0,0,0,0,0,0,0,0,0,0,0,0,0,0,0],"sum_hessian":[2.908153E2,2.289887E2,6.182663E1,7.686841E1,1.5212029E2,1.9630255E1,5.7238155E1,6.952873E1,8.2591545E1,1.4245981E1,5.384274E0,4.4155354E0,6.51132E1,1.987577E1,6.2715775E1],"tree_param":{"num_deleted":"0","num_feature":"43","num_nodes":"15","size_leaf_vector":"1"}},{"base_weights":[2.8406793E-2,8.612416E-1,-1.4326452E-1,4.1748607E-1,1.7063136E-1,-5.4955505E-2,-4.0866947E-1,-1.3271478E-1,1.2589562E-1,-4.9328455E-1,7.4157305E-3,-6.6613597E-1,-2.196989E-1,-3.0946404E-2,-1.4768304E-1,7.4374214E-2,-2.0837376E-2,-1.2847763E-1,5.3669576E-2,-1.16325095E-2,-1.3452296E-1],"categories":[],"categories_nodes":[],"categories_segments":[],"categories_sizes":[],"default_left":[0,0,0,0,0,0,0,0,0,0,0,0,0,0,0,0,0,0,0,0,0],"id":21,"left_children":[1,3,5,7,-1,9,11,-1,-1,13,15,17,19,-1,-1,-1,-1,-1,-1,-1,-1],"loss_changes":[3.6756306E1,2.9960442E0,4.995678E0,4.519958E0,0E0,4.372452E0,2.5890293E0,0E0,0E0,2.3725138E0,7.9996495E0,2.1763916E0,2.6811512E0,0E0,0E0,0E0,0E0,0E0,0E0,0E0,0E0],"parents":[2147483647,0,0,1,1,2,2,3,3,5,5,6,6,9,9,10,10,11,11,12,12],"right_children":[2,4,6,8,-1,10,12,-1,-1,14,16,18,20,-1,-1,-1,-1,-1,-1,-1,-1],"split_conditions":[9.809232E0,9.608646E0,1.2096156E-1,6.6046545E-4,1.7063136E-1,2.5414128E-2,1.9132303E0,-1.3271478E-1,1.2589562E-1,5.764661E-1,1.6045067E-1,6.9617105E-1,4.928E3,-3.0946404E-2,-1.4768304E-1,7.4374214E-2,-2.0837376E-2,-1.2847763E-1,5.3669576E-2,-1.16325095E-2,-1.3452296E-1],"split_indices":[26,29,37,37,0,41,30,0,0,36,41,37,27,0,0,0,0,0,0,0,0],"split_type":[0,0,0,0,0,0,0,0,0,0,0,0,0,0,0,0,0,0,0,0,0],"sum_hessian":[2.5708334E2,4.3935585E1,2.1314775E2,1.1301958E1,3.263363E1,1.5993321E2,5.3214542E1,2.4343967E0,8.867561E0,1.9922234E1,1.4001099E2,2.2524511E1,3.0690031E1,1.1050651E1,8.871583E0,3.247505E1,1.0753593E2,2.0486076E1,2.038435E0,2.437113E1,6.318901E0],"tree_param":{"num_deleted":"0","num_feature":"43","num_nodes":"21","size_leaf_vector":"1"}},{"base_weights":[3.9119925E-3,-4.7884876E-1,1.733716E-1,-1.7491674E-1,1.7546198E-1],"categories":[],"categories_nodes":[],"categories_segments":[],"categories_sizes":[],"default_left":[0,0,0,0,0],"id":22,"left_children":[1,3,-1,-1,-1],"loss_changes":[1.179666E2,1.3835217E2,0E0,0E0,0E0],"parents":[2147483647,0,0,1,1],"right_children":[2,4,-1,-1,-1],"split_conditions":[9.6283543E-1,2.9803095E0,1.733716E-1,-1.7491674E-1,1.7546198E-1],"split_indices":[42,39,0,0,0],"split_type":[0,0,0,0,0],"sum_hessian":[2.3786229E2,1.6181908E2,7.604322E1,1.1821625E2,4.360282E1],"tree_param":{"num_deleted":"0","num_feature":"43","num_nodes":"5","size_leaf_vector":"1"}},{"base_weights":[1.8823368E-2,8.314124E-1,-1.3124935E-1,-8.455022E-2,1.7143987E-1,-6.389995E-1,8.573312E-2,-3.9565107E-1,-1.6414131E-1,7.3910904E-1,-4.967102E-2,-1.7171276E-1,-4.4891685E-3,1.712808E-1,7.247741E-2,-7.3199846E-2,2.1527825E-2],"categories":[],"categories_nodes":[],"categories_segments":[],"categories_sizes":[],"default_left":[0,0,0,0,0,0,0,0,0,0,0,0,0,0,0,0,0],"id":23,"left_children":[1,3,5,-1,-1,7,9,11,-1,13,15,-1,-1,-1,-1,-1,-1],"loss_changes":[2.6149164E1,8.399847E0,1.9941492E1,0E0,0E0,4.4481525E0,1.1218938E1,7.2674756E0,0E0,1.8750181E0,7.200722E0,0E0,0E0,0E0,0E0,0E0,0E0],"parents":[2147483647,0,0,1,1,2,2,5,5,6,6,7,7,9,9,10,10],"right_children":[2,4,6,-1,-1,8,10,12,-1,14,16,-1,-1,-1,-1,-1,-1],"split_conditions":[9.809232E0,4.5686703E0,6.979639E0,-8.455022E-2,1.7143987E-1,1.2945628E1,1.3085702E1,4.35251E0,-1.6414131E-1,6.5353036E-2,8.501608E0,-1.7171276E-1,-4.4891685E-3,1.712808E-1,7.247741E-2,-7.3199846E-2,2.1527825E-2],"split_indices":[26,34,34,0,0,26,26,34,0,28,34,0,0,0,0,0,0],"split_type":[0,0,0,0,0,0,0,0,0,0,0,0,0,0,0,0,0],"sum_hessian":[2.1442899E2,3.342781E1,1.8100117E2,4.1341853E0,2.9293627E1,5.419091E1,1.2681026E2,3.1480816E1,2.2710094E1,2.17683E1,1.0504196E2,1.1677026E1,1.9803791E1,1.1408479E1,1.035982E1,3.3131798E1,7.1910164E1],"tree_param":{"num_deleted":"0","num_feature":"43","num_nodes":"17","size_leaf_vector":"1"}},{"base_weights":[7.439074E-3,-2.9337066E-1,1.7567916E-1,8.073164E-1,-5.28278E-1,-9.434272E-2,1.7086218E-1,-4.4332195E-2,-7.0284265E-1,3.6268093E-2,-1.1519126E-1,-1.5189296E-1,-5.433188E-2],"categories":[],"categories_nodes":[],"categories_segments":[],"categories_sizes":[],"default_left":[0,0,0,0,0,0,0,0,0,0,0,0,0],"id":24,"left_children":[1,3,-1,5,7,-1,-1,9,11,-1,-1,-1,-1],"loss_changes":[6.0715168E1,3.8995033E1,0E0,7.5860577E0,1.0500004E1,0E0,0E0,5.490981E0,6.957451E0,0E0,0E0,0E0,0E0],"parents":[2147483647,0,0,1,1,3,3,4,4,7,7,8,8],"right_children":[2,4,-1,6,8,-1,-1,10,12,-1,-1,-1,-1],"split_conditions":[2.9803095E0,9.809232E0,1.7567916E-1,4.5686703E0,6E0,-9.434272E-2,1.7086218E-1,1.7749294E1,8.468469E0,3.6268093E-2,-1.1519126E-1,-1.5189296E-1,-5.433188E-2],"split_indices":[39,26,0,34,9,0,0,26,34,0,0,0,0],"split_type":[0,0,0,0,0,0,0,0,0,0,0,0,0],"sum_hessian":[1.9454198E2,1.5081546E2,4.3726513E1,2.6525576E1,1.2428989E2,3.5139425E0,2.3011633E1,3.294819E1,9.13417E1,2.3437304E1,9.510883E0,5.9762585E1,3.1579113E1],"tree_param":{"num_deleted":"0","num_feature":"43","num_nodes":"13","size_leaf_vector":"1"}},{"base_weights":[3.0011524E-2,1.5513611E-1,-6.15367E-2,1.7638028E-2,-4.225783E-1,5.6446575E-2,-8.499895E-2,2.1539126E-1,-1.0675524E-1,2.372378E-2,-3.4547538E-2,-8.090518E-2,1.4626527E-1],"categories":[],"categories_nodes":[],"categories_segments":[],"categories_sizes":[],"default_left":[0,0,0,0,0,0,0,0,0,0,0,0,0],"id":25,"left_children":[1,-1,3,5,7,9,-1,11,-1,-1,-1,-1,-1],"loss_changes":[1.4742528E1,0E0,4.676743E0,2.7245762E0,3.987402E0,2.7701879E0,0E0,3.3518324E0,0E0,0E0,0E0,0E0,0E0],"parents":[2147483647,0,0,2,2,3,3,4,4,5,5,7,7],"right_children":[2,-1,4,6,8,10,-1,12,-1,-1,-1,-1,-1],"split_conditions":[1.82E2,1.5513611E-1,1.1614031E0,1.9588656E0,6.41E2,1.00874245E-1,-8.499895E-2,5.77E2,-1.0675524E-1,2.372378E-2,-3.4547538E-2,-8.090518E-2,1.4626527E-1],"split_indices":[27,0,40,32,27,37,0,27,0,0,0,0,0],"split_type":[0,0,0,0,0,0,0,0,0,0,0,0,0],"sum_hessian":[1.8038243E2,1.6776932E1,1.636055E2,1.3418066E2,2.9424835E1,1.24915634E2,9.265034E0,7.3496523E0,2.2075182E1,9.440294E1,3.05127E1,3.5605934E0,3.7890592E0],"tree_param":{"num_deleted":"0","num_feature":"43","num_nodes":"13","size_leaf_vector":"1"}},{"base_weights":[6.1798826E-2,-4.2223433E-1,2.5019127E-1,3.3358093E-3,-7.07276E-1,7.2004485E-1,-2.6832333E-2,-3.9609638E-1,1.7785694E-1,-1.5105535E-1,-1.3282904E-1,2.7085766E-1,1.7919733E-1,-2.0900229E-1,9.73087E-2,-1.8358968E-2,-2.0129383E-1,-1.705726E-1,3.9007742E-2,1.6637334E-1,-2.404837E-2,4.277305E-2,-9.153411E-2],"categories":[],"categories_nodes":[],"categories_segments":[],"categories_sizes":[],"default_left":[0,0,0,0,0,0,0,0,0,0,0,0,0,0,0,0,0,0,0,0,0,0,0],"id":26,"left_children":[1,3,5,7,9,11,13,15,-1,-1,17,19,-1,21,-1,-1,-1,-1,-1,-1,-1,-1,-1],"loss_changes":[1.6164835E1,6.0246525E0,1.6608986E1,8.391904E0,3.2668715E0,7.35203E0,8.856514E0,3.3213491E0,0E0,0E0,2.3897867E0,6.1248055E0,0E0,9.593298E0,0E0,0E0,0E0,0E0,0E0,0E0,0E0,0E0,0E0],"parents":[2147483647,0,0,1,1,2,2,3,3,4,4,5,5,6,6,7,7,10,10,11,11,13,13],"right_children":[2,4,6,8,10,12,14,16,-1,-1,18,20,-1,22,-1,-1,-1,-1,-1,-1,-1,-1,-1],"split_conditions":[6.9470196E0,1.0529452E1,1.3412045E1,5.741323E0,2.9180179E0,8.468469E0,1.27225E1,1.0348206E1,1.7785694E-1,-1.5105535E-1,4.35251E0,1.621842E-1,1.7919733E-1,1.567804E1,9.73087E-2,-1.8358968E-2,-2.0129383E-1,-1.705726E-1,3.9007742E-2,1.6637334E-1,-2.404837E-2,4.277305E-2,-9.153411E-2],"split_indices":[34,26,26,34,30,34,34,26,0,0,34,28,0,26,0,0,0,0,0,0,0,0,0],"split_type":[0,0,0,0,0,0,0,0,0,0,0,0,0,0,0,0,0,0,0,0,0,0,0],"sum_hessian":[1.7726808E2,4.9664772E1,1.2760331E2,1.9921753E1,2.974302E1,4.7329014E1,8.02743E1,1.4449148E1,5.4726048E0,2.2315163E1,7.427856E0,2.0588135E1,2.674088E1,6.1711903E1,1.8562393E1,1.0639728E1,3.80942E0,2.1737602E0,5.2540956E0,7.523324E0,1.3064812E1,2.5913054E1,3.579885E1],"tree_param":{"num_deleted":"0","num_feature":"43","num_nodes":"23","size_leaf_vector":"1"}},{"base_weights":[-1.2030536E-2,-3.0553898E-1,1.6279519E-1,4.234791E-1,-5.813998E-1,-3.74264E-1,1.7131293E-1,-7.482624E-1,-6.932695E-2,-1.7254889E-1,9.9949315E-2,-1.3572755E-1,-5.604964E-3,-1.8211715E-1,3.644625E-2],"categories":[],"categories_nodes":[],"categories_segments":[],"categories_sizes":[],"default_left":[0,0,0,0,0,0,0,0,0,0,0,0,0,0,0],"id":27,"left_children":[1,3,-1,5,7,9,-1,11,13,-1,-1,-1,-1,-1,-1],"loss_changes":[4.744781E1,2.5521599E1,0E0,1.6550144E1,7.8666935E0,9.406672E0,0E0,2.9313736E0,6.5642085E0,0E0,0E0,0E0,0E0,0E0,0E0],"parents":[2147483647,0,0,1,1,3,3,4,4,5,5,7,7,8,8],"right_children":[2,4,-1,6,8,10,-1,12,14,-1,-1,-1,-1,-1,-1],"split_conditions":[2.7312772E0,1.0529452E1,1.6279519E-1,5.741323E0,1.5147371E0,6.658165E-1,1.7131293E-1,1.27225E1,7.9400826E0,-1.7254889E-1,9.9949315E-2,-1.3572755E-1,-5.604964E-3,-1.8211715E-1,3.644625E-2],"split_indices":[39,26,0,34,39,39,0,34,34,0,0,0,0,0,0],"split_type":[0,0,0,0,0,0,0,0,0,0,0,0,0,0,0],"sum_hessian":[1.648985E2,1.26904335E2,3.7994167E1,3.483789E1,9.2066444E1,1.4890387E1,1.9947506E1,6.943903E1,2.2627413E1,8.899952E0,5.9904346E0,6.414128E1,5.2977467E0,4.979629E0,1.7647785E1],"tree_param":{"num_deleted":"0","num_feature":"43","num_nodes":"15","size_leaf_vector":"1"}},{"base_weights":[4.011544E-2,-4.525912E-1,1.6968901E-1,-1.7303495E-1,1.7742935E-1],"categories":[],"categories_nodes":[],"categories_segments":[],"categories_sizes":[],"default_left":[0,0,0,0,0],"id":28,"left_children":[1,3,-1,-1,-1],"loss_changes":[7.197873E1,8.689156E1,0E0,0E0,0E0],"parents":[2147483647,0,0,1,1],"right_children":[2,4,-1,-1,-1],"split_conditions":[9.6283543E-1,2.9803095E0,1.6968901E-1,-1.7303495E-1,1.7742935E-1],"split_indices":[42,39,0,0,0],"split_type":[0,0,0,0,0],"sum_hessian":[1.5073029E2,9.9929726E1,5.0800552E1,7.228769E1,2.7642035E1],"tree_param":{"num_deleted":"0","num_feature":"43","num_nodes":"5","size_leaf_vector":"1"}},{"base_weights":[1.8105565E-2,-4.514983E-1,1.6494578E-1,-1.723172E-1,1.623375E-1],"categories":[],"categories_nodes":[],"categories_segments":[],"categories_sizes":[],"default_left":[0,0,0,0,0],"id":29,"left_children":[1,3,-1,-1,-1],"loss_changes":[5.7244843E1,6.914693E1,0E0,0E0,0E0],"parents":[2147483647,0,0,1,1],"right_children":[2,4,-1,-1,-1],"split_conditions":[9.6283543E-1,2.9803095E0,1.6494578E-1,-1.723172E-1,1.623375E-1],"split_indices":[42,39,0,0,0],"split_type":[0,0,0,0,0],"sum_hessian":[1.2658361E2,8.508984E1,4.1493763E1,6.057659E1,2.4513256E1],"tree_param":{"num_deleted":"0","num_feature":"43","num_nodes":"5","size_leaf_vector":"1"}},{"base_weights":[-2.3298338E-2,-4.2576113E-1,1.769277E-1,-8.8847697E-1,1.7481926E-1,-1.682156E-1,1.7577724E-1,-2.02333E-1,2.224746E-1],"categories":[],"categories_nodes":[],"categories_segments":[],"categories_sizes":[],"default_left":[0,0,0,0,0,0,0,0,0],"id":30,"left_children":[1,3,-1,5,-1,-1,7,-1,-1],"loss_changes":[4.6303295E1,5.2784096E1,0E0,7.0560913E0,0E0,0E0,8.921627E0,0E0,0E0],"parents":[2147483647,0,0,1,1,3,3,6,6],"right_children":[2,4,-1,6,-1,-1,8,-1,-1],"split_conditions":[1.0338265E0,3.0776544E0,1.769277E-1,9.6283543E-1,1.7481926E-1,-1.682156E-1,4.6E1,-2.02333E-1,2.224746E-1],"split_indices":[42,39,0,42,0,0,8,0,0],"split_type":[0,0,0,0,0,0,0,0,0],"sum_hessian":[1.069558E2,7.783427E1,2.9121538E1,5.9157303E1,1.8676964E1,5.3521187E1,5.636118E0,2.5595767E0,3.076541E0],"tree_param":{"num_deleted":"0","num_feature":"43","num_nodes":"9","size_leaf_vector":"1"}},{"base_weights":[2.366367E-2,-3.675978E-1,1.7587344E-1,-8.658843E-1,1.5651605E-1,-1.710903E-1,1.5682216E-1,-1.0011521E-1,1.6129853E-1],"categories":[],"categories_nodes":[],"categories_segments":[],"categories_sizes":[],"default_left":[0,0,0,0,0,0,0,0,0],"id":31,"left_children":[1,3,-1,5,-1,-1,7,-1,-1],"loss_changes":[3.814382E1,4.4621555E1,0E0,7.7353516E0,0E0,0E0,3.888839E0,0E0,0E0],"parents":[2147483647,0,0,1,1,3,3,6,6],"right_children":[2,4,-1,6,-1,-1,8,-1,-1],"split_conditions":[1.0338265E0,2.9803095E0,1.7587344E-1,9.6283543E-1,1.5651605E-1,-1.710903E-1,7.058222E-1,-1.0011521E-1,1.6129853E-1],"split_indices":[42,39,0,42,0,0,32,0,0],"split_type":[0,0,0,0,0,0,0,0,0],"sum_hessian":[9.534928E1,6.896015E1,2.6389133E1,4.983679E1,1.9123362E1,4.33969E1,6.4398885E0,3.324104E0,3.1157844E0],"tree_param":{"num_deleted":"0","num_feature":"43","num_nodes":"9","size_leaf_vector":"1"}},{"base_weights":[1.8432058E-2,1.6847889E-1,-4.66465E-2,-1.2116222E-1,2.5717517E-2,9.889658E-2,-1.295052E-1,-7.919495E-2,1.6704401E-2],"categories":[],"categories_nodes":[],"categories_segments":[],"categories_sizes":[],"default_left":[0,0,0,0,0,0,0,0,0],"id":32,"left_children":[1,-1,3,-1,5,-1,7,-1,-1],"loss_changes":[5.1433516E0,0E0,3.675648E0,0E0,5.942119E0,0E0,4.1691437E0,0E0,0E0],"parents":[2147483647,0,0,2,2,4,4,6,6],"right_children":[2,-1,4,-1,6,-1,8,-1,-1],"split_conditions":[7.2800083E0,1.6847889E-1,4.702635E0,-1.2116222E-1,1.2945628E1,9.889658E-2,8.501608E0,-7.919495E-2,1.6704401E-2],"split_indices":[26,0,34,0,26,0,34,0,0],"split_type":[0,0,0,0,0,0,0,0,0],"sum_hessian":[8.034297E1,4.9851446E0,7.535783E1,7.305723E0,6.805211E1,1.4717032E1,5.3335075E1,2.139921E1,3.1935863E1],"tree_param":{"num_deleted":"0","num_feature":"43","num_nodes":"9","size_leaf_vector":"1"}},{"base_weights":[2.819964E-2,1.4904712E-1,-2.8371409E-2,3.0260818E-2,-5.1680297E-1,-8.68793E-2,9.873853E-2,-1.3654828E-1,6.305717E-2,2.6661798E-2,-7.688356E-2],"categories":[],"categories_nodes":[],"categories_segments":[],"categories_sizes":[],"default_left":[0,0,0,0,0,0,0,0,0,0,0],"id":33,"left_children":[1,-1,3,5,7,-1,9,-1,-1,-1,-1],"loss_changes":[3.8970022E0,0E0,2.1562636E0,2.5181606E0,2.126093E0,0E0,1.9882007E0,0E0,0E0,0E0,0E0],"parents":[2147483647,0,0,2,2,3,3,4,4,6,6],"right_children":[2,-1,4,6,8,-1,10,-1,-1,-1,-1],"split_conditions":[1.82E2,1.4904712E-1,1.5053408E0,2.5414128E-2,4.6391816E0,-8.68793E-2,1.8E1,-1.3654828E-1,6.305717E-2,2.6661798E-2,-7.688356E-2],"split_indices":[27,0,41,41,38,0,0,0,0,0,0],"split_type":[0,0,0,0,0,0,0,0,0,0,0],"sum_hessian":[8.025546E1,4.9620433E0,7.529342E1,6.7224075E1,8.069344E0,7.478746E0,5.9745335E1,6.0617294E0,2.0076141E0,5.3940117E1,5.8052154E0],"tree_param":{"num_deleted":"0","num_feature":"43","num_nodes":"11","size_leaf_vector":"1"}},{"base_weights":[1.3508623E-2,-3.4894645E-1,1.7513525E-1,-8.5305965E-1,1.5317698E-1,-1.7068459E-1,1.193783E-1,1.2800884E-1,-1.1567598E-1],"categories":[],"categories_nodes":[],"categories_segments":[],"categories_sizes":[],"default_left":[0,0,0,0,0,0,0,0,0],"id":34,"left_children":[1,3,-1,5,-1,-1,7,-1,-1],"loss_changes":[2.9144098E1,3.6727837E1,0E0,6.5130043E0,0E0,0E0,3.060368E0,0E0,0E0],"parents":[2147483647,0,0,1,1,3,3,6,6],"right_children":[2,4,-1,6,-1,-1,8,-1,-1],"split_conditions":[1.0338265E0,2.9803095E0,1.7513525E-1,9.6283543E-1,1.5317698E-1,-1.7068459E-1,1E0,1.2800884E-1,-1.1567598E-1],"split_indices":[42,39,0,42,0,0,6,0,0],"split_type":[0,0,0,0,0,0,0,0,0],"sum_hessian":[7.820135E1,5.7819435E1,2.038191E1,4.1297485E1,1.652195E1,3.539461E1,5.902874E0,3.288255E0,2.614619E0],"tree_param":{"num_deleted":"0","num_feature":"43","num_nodes":"9","size_leaf_vector":"1"}},{"base_weights":[3.3100113E-2,-2.1852995E-1,1.7192858E-1,1.4574142E-1,-2.8673348E-1,-1.82218E-1,-2.1047978E-1,-1.9257821E-2,-1.7168532E-1],"categories":[],"categories_nodes":[],"categories_segments":[],"categories_sizes":[],"default_left":[0,0,0,0,0,0,0,0,0],"id":35,"left_children":[1,3,-1,-1,5,-1,7,-1,-1],"loss_changes":[1.647523E1,3.905242E0,0E0,0E0,3.0167265E0,0E0,3.5231593E0,0E0,0E0],"parents":[2147483647,0,0,1,1,4,4,6,6],"right_children":[2,4,-1,-1,6,-1,8,-1,-1],"split_conditions":[3.0776544E0,1.82E2,1.7192858E-1,1.4574142E-1,2.5414128E-2,-1.82218E-1,3.630994E0,-1.9257821E-2,-1.7168532E-1],"split_indices":[39,27,0,0,41,0,38,0,0],"split_type":[0,0,0,0,0,0,0,0,0],"sum_hessian":[6.616563E1,5.275165E1,1.3413974E1,3.118492E0,4.963316E1,4.33304E0,4.5300117E1,4.050724E1,4.792877E0],"tree_param":{"num_deleted":"0","num_feature":"43","num_nodes":"9","size_leaf_vector":"1"}},{"base_weights":[-7.1957177E-3,-8.6408846E-2,8.363478E-1,4.5035622E-1,1.8537869E-1,-6.7414284E-2,1.7227565E-1],"categories":[],"categories_nodes":[],"categories_segments":[],"categories_sizes":[],"default_left":[0,0,0,0,0,0,0],"id":36,"left_children":[1,-1,3,5,-1,-1,-1],"loss_changes":[2.6896236E1,0E0,2.4268475E0,4.714011E0,0E0,0E0,0E0],"parents":[2147483647,0,0,2,2,3,3],"right_children":[2,-1,4,6,-1,-1,-1],"split_conditions":[9.6283543E-1,-8.6408846E-2,8.501608E0,1.0338265E0,1.8537869E-1,-6.7414284E-2,1.7227565E-1],"split_indices":[42,0,34,42,0,0,0],"split_type":[0,0,0,0,0,0,0],"sum_hessian":[6.2917404E1,3.9304844E1,2.3612558E1,9.640124E0,1.3972434E1,3.8836176E0,5.7565064E0],"tree_param":{"num_deleted":"0","num_feature":"43","num_nodes":"7","size_leaf_vector":"1"}},{"base_weights":[-3.197301E-2,-3.2306656E-1,1.5932897E-1,-6.3265795E-1,1.8596537E-2,-3.600393E-2,-1.4477292E-1,1.6284315E-1,-2.8715685E-1,-8.038983E-2,9.720366E-2],"categories":[],"categories_nodes":[],"categories_segments":[],"categories_sizes":[],"default_left":[0,0,0,0,0,0,0,0,0,0,0],"id":37,"left_children":[1,3,-1,5,7,-1,-1,-1,9,-1,-1],"loss_changes":[1.6296007E1,4.6598654E0,0E0,2.2096214E0,6.0832276E0,0E0,0E0,0E0,2.6187804E0,0E0,0E0],"parents":[2147483647,0,0,1,1,3,3,4,4,8,8],"right_children":[2,4,-1,6,8,-1,-1,-1,10,-1,-1],"split_conditions":[2.9803095E0,8.501608E0,1.5932897E-1,6.508078E-1,1.3006875E1,-3.600393E-2,-1.4477292E-1,1.6284315E-1,1.32984295E1,-8.038983E-2,9.720366E-2],"split_indices":[39,34,0,40,29,0,0,0,34,0,0],"split_type":[0,0,0,0,0,0,0,0,0,0,0],"sum_hessian":[5.7143204E1,4.4053593E1,1.308961E1,2.3111364E1,2.0942228E1,8.161384E0,1.4949981E1,5.098857E0,1.5843371E1,1.2978761E1,2.8646111E0],"tree_param":{"num_deleted":"0","num_feature":"43","num_nodes":"11","size_leaf_vector":"1"}},{"base_weights":[-2.314848E-3,-3.879176E-1,1.7349581E-1,-8.412756E-1,1.716255E-1,-1.651419E-1,-1.16637245E-1,8.183526E-2,-1.2191574E-1],"categories":[],"categories_nodes":[],"categories_segments":[],"categories_sizes":[],"default_left":[0,0,0,0,0,0,0,0,0],"id":38,"left_children":[1,3,-1,5,-1,-1,7,-1,-1],"loss_changes":[2.2155163E1,2.5844372E1,0E0,3.1277065E0,0E0,0E0,1.8311886E0,0E0,0E0],"parents":[2147483647,0,0,1,1,3,3,6,6],"right_children":[2,4,-1,6,-1,-1,8,-1,-1],"split_conditions":[1.0338265E0,3.0776544E0,1.7349581E-1,9.6283543E-1,1.716255E-1,-1.651419E-1,4E0,8.183526E-2,-1.2191574E-1],"split_indices":[42,39,0,42,0,0,7,0,0],"split_type":[0,0,0,0,0,0,0,0,0],"sum_hessian":[5.555124E1,4.0465096E1,1.5086144E1,3.0613394E1,9.851701E0,2.5627007E1,4.986387E0,2.503769E0,2.4826179E0],"tree_param":{"num_deleted":"0","num_feature":"43","num_nodes":"9","size_leaf_vector":"1"}},{"base_weights":[9.6586056E-2,-3.9878455E-1,1.5688509E-1,-1.6967845E-1,1.5396401E-1],"categories":[],"categories_nodes":[],"categories_segments":[],"categories_sizes":[],"default_left":[0,0,0,0,0],"id":39,"left_children":[1,3,-1,-1,-1],"loss_changes":[1.9583822E1,2.38196E1,0E0,0E0,0E0],"parents":[2147483647,0,0,1,1],"right_children":[2,4,-1,-1,-1],"split_conditions":[9.6283543E-1,2.9803095E0,1.5688509E-1,-1.6967845E-1,1.5396401E-1],"split_indices":[42,39,0,0,0],"split_type":[0,0,0,0,0],"sum_hessian":[4.725608E1,2.9680895E1,1.7575186E1,2.026855E1,9.412342E0],"tree_param":{"num_deleted":"0","num_feature":"43","num_nodes":"5","size_leaf_vector":"1"}},{"base_weights":[2.9485047E-2,-3.243211E-1,1.7212716E-1,-7.3952734E-1,1.5033333E-1,-1.6950423E-1,8.594316E-3,-1.0316638E-1,9.8772004E-2],"categories":[],"categories_nodes":[],"categories_segments":[],"categories_sizes":[],"default_left":[0,0,0,0,0,0,0,0,0],"id":40,"left_children":[1,3,-1,5,-1,-1,7,-1,-1],"loss_changes":[1.5329149E1,1.6259892E1,0E0,4.818328E0,0E0,0E0,2.2818956E0,0E0,0E0],"parents":[2147483647,0,0,1,1,3,3,6,6],"right_children":[2,4,-1,6,-1,-1,8,-1,-1],"split_conditions":[1.0338265E0,2.9803095E0,1.7212716E-1,9.6283543E-1,1.5033333E-1,-1.6950423E-1,8.468469E0,-1.0316638E-1,9.8772004E-2],"split_indices":[42,39,0,42,0,0,34,0,0],"split_type":[0,0,0,0,0,0,0,0,0],"sum_hessian":[4.3572594E1,3.2137566E1,1.1435026E1,2.3969969E1,8.167597E0,1.7635906E1,6.3340626E0,3.0527716E0,3.2812908E0],"tree_param":{"num_deleted":"0","num_feature":"43","num_nodes":"9","size_leaf_vector":"1"}},{"base_weights":[2.7574318E-2,-7.61986E-2,1.3079184E-1],"categories":[],"categories_nodes":[],"categories_segments":[],"categories_sizes":[],"default_left":[0,0,0],"id":41,"left_children":[1,-1,-1],"loss_changes":[1.2992229E1,0E0,0E0],"parents":[2147483647,0,0],"right_children":[2,-1,-1],"split_conditions":[9.6283543E-1,-7.61986E-2,1.3079184E-1],"split_indices":[42,0,0],"split_type":[0,0,0],"sum_hessian":[3.6010075E1,2.194741E1,1.4062663E1],"tree_param":{"num_deleted":"0","num_feature":"43","num_nodes":"3","size_leaf_vector":"1"}},{"base_weights":[3.205799E-2,-2.6474264E-1,1.517725E-1,-1.8988682E-2,-1.4460787E-1],"categories":[],"categories_nodes":[],"categories_segments":[],"categories_sizes":[],"default_left":[0,0,0,0,0],"id":42,"left_children":[1,3,-1,-1,-1],"loss_changes":[8.935326E0,2.3304973E0,0E0,0E0,0E0],"parents":[2147483647,0,0,1,1],"right_children":[2,4,-1,-1,-1],"split_conditions":[2.9803095E0,3.846E3,1.517725E-1,-1.8988682E-2,-1.4460787E-1],"split_indices":[39,27,0,0,0],"split_type":[0,0,0,0,0],"sum_hessian":[3.4575836E1,2.5786121E1,8.789714E0,2.054784E1,5.2382817E0],"tree_param":{"num_deleted":"0","num_feature":"43","num_nodes":"5","size_leaf_vector":"1"}},{"base_weights":[-8.962855E-2,-3.2247895E-1,1.6993247E-1,-1.1458634E-1,-9.3752843E-1,5.770611E-3,-1.8850285E-1,-3.0432114E-1,-9.634452E-2],"categories":[],"categories_nodes":[],"categories_segments":[],"categories_sizes":[],"default_left":[0,0,0,0,0,0,0,0,0],"id":43,"left_children":[1,3,-1,5,7,-1,-1,-1,-1],"loss_changes":[8.414467E0,3.465627E0,0E0,3.0366147E0,2.1771173E0,0E0,0E0,0E0,0E0],"parents":[2147483647,0,0,1,1,3,3,4,4],"right_children":[2,4,-1,6,8,-1,-1,-1,-1],"split_conditions":[3.0776544E0,1.5186691E1,1.6993247E-1,1.6826557E0,3.443E3,5.770611E-3,-1.8850285E-1,-3.0432114E-1,-9.634452E-2],"split_indices":[39,26,0,41,27,0,0,0,0],"split_type":[0,0,0,0,0,0,0,0,0],"sum_hessian":[3.283907E1,2.7103975E1,5.735093E0,2.025731E1,6.8466644E0,1.7647167E1,2.6101434E0,2.0167322E0,4.829932E0],"tree_param":{"num_deleted":"0","num_feature":"43","num_nodes":"9","size_leaf_vector":"1"}},{"base_weights":[4.4437878E-2,-1.4147137E-1,1.6967146E-1,-5.3546214E-1,1.08687356E-1,3.5142251E-3,-1.5485674E-1,1.7904311E-1,-1.5599778E-1,-1.7000797E-1,5.8209966E-3],"categories":[],"categories_nodes":[],"categories_segments":[],"categories_sizes":[],"default_left":[0,0,0,0,0,0,0,0,0,0,0],"id":44,"left_children":[1,3,-1,5,7,-1,-1,-1,9,-1,-1],"loss_changes":[5.651537E0,2.603859E0,0E0,2.2012882E0,4.090112E0,0E0,0E0,0E0,2.0633001E0,0E0,0E0],"parents":[2147483647,0,0,1,1,3,3,4,4,8,8],"right_children":[2,4,-1,6,8,-1,-1,-1,10,-1,-1],"split_conditions":[3.0776544E0,7.7353644E0,1.6967146E-1,1.0529452E1,1.2618186E1,3.5142251E-3,-1.5485674E-1,1.7904311E-1,8.468469E0,-1.7000797E-1,5.8209966E-3],"split_indices":[39,34,0,26,26,0,0,0,34,0,0],"split_type":[0,0,0,0,0,0,0,0,0,0,0],"sum_hessian":[3.150867E1,2.6418268E1,5.090402E0,1.0259505E1,1.6158764E1,4.200136E0,6.059369E0,3.5027385E0,1.2656025E1,2.3064673E0,1.0349558E1],"tree_param":{"num_deleted":"0","num_feature":"43","num_nodes":"11","size_leaf_vector":"1"}},{"base_weights":[5.04987E-2,-1.5714078E-1,1.4312749E-1,-8.96755E-2,1.8046794E-2],"categories":[],"categories_nodes":[],"categories_segments":[],"categories_sizes":[],"default_left":[0,0,0,0,0],"id":45,"left_children":[1,3,-1,-1,-1],"loss_changes":[4.895257E0,2.326412E0,0E0,0E0,0E0],"parents":[2147483647,0,0,1,1],"right_children":[2,4,-1,-1,-1],"split_conditions":[2.9803095E0,7.9881005E0,1.4312749E-1,-8.96755E-2,1.8046794E-2],"split_indices":[39,34,0,0,0],"split_type":[0,0,0,0,0],"sum_hessian":[2.9438482E1,2.3377459E1,6.061025E0,9.6496315E0,1.3727827E1],"tree_param":{"num_deleted":"0","num_feature":"43","num_nodes":"5","size_leaf_vector":"1"}},{"base_weights":[4.6389215E-3,-3.8315904E-1,1.7121199E-1,5.708342E-2,-6.5409356E-1,-1.0412372E-1,1.0759853E-1,-2.1122375E-1,-2.817028E-1,-1.0736942E-1,1.1522461E-1],"categories":[],"categories_nodes":[],"categories_segments":[],"categories_sizes":[],"default_left":[0,0,0,0,0,0,0,0,0,0,0],"id":46,"left_children":[1,3,-1,5,7,-1,-1,-1,9,-1,-1],"loss_changes":[1.1193662E1,2.456537E0,0E0,3.0939274E0,2.8592033E0,0E0,0E0,0E0,2.719666E0,0E0,0E0],"parents":[2147483647,0,0,1,1,3,3,4,4,8,8],"right_children":[2,4,-1,6,8,-1,-1,-1,10,-1,-1],"split_conditions":[1.0338265E0,1.268399E1,1.7121199E-1,7.2905684E0,8.501608E0,-1.0412372E-1,1.0759853E-1,-2.1122375E-1,7.9954356E-1,-1.0736942E-1,1.1522461E-1],"split_indices":[42,29,0,34,34,0,0,0,42,0,0],"split_type":[0,0,0,0,0,0,0,0,0,0,0],"sum_hessian":[2.8472784E1,2.0594662E1,7.8781233E0,7.8459797E0,1.2748681E1,3.6317081E0,4.2142715E0,4.8705354E0,7.8781457E0,5.754401E0,2.123745E0],"tree_param":{"num_deleted":"0","num_feature":"43","num_nodes":"11","size_leaf_vector":"1"}},{"base_weights":[1.3394405E-1,-4.1733402E-1,1.4359914E-1,-1.5337743E-1,1.6948555E-1],"categories":[],"categories_nodes":[],"categories_segments":[],"categories_sizes":[],"default_left":[0,0,0,0,0],"id":47,"left_children":[1,3,-1,-1,-1],"loss_changes":[1.0453315E1,1.0522355E1,0E0,0E0,0E0],"parents":[2147483647,0,0,1,1],"right_children":[2,4,-1,-1,-1],"split_conditions":[9.6283543E-1,3.0776544E0,1.4359914E-1,-1.5337743E-1,1.6948555E-1],"split_indices":[42,39,0,0,0],"split_type":[0,0,0,0,0],"sum_hessian":[2.6328438E1,1.491312E1,1.1415318E1,1.1069561E1,3.8435585E0],"tree_param":{"num_deleted":"0","num_feature":"43","num_nodes":"5","size_leaf_vector":"1"}},{"base_weights":[8.6359136E-2,-2.405319E-1,1.7060839E-1,2.2180027E-3,-7.225127E-1,-1.0238915E-2,-2.3485811E-1],"categories":[],"categories_nodes":[],"categories_segments":[],"categories_sizes":[],"default_left":[0,0,0,0,0,0,0],"id":48,"left_children":[1,3,-1,-1,5,-1,-1],"loss_changes":[6.636283E0,1.9777246E0,0E0,0E0,2.488637E0,0E0,0E0],"parents":[2147483647,0,0,1,1,4,4],"right_children":[2,4,-1,-1,6,-1,-1],"split_conditions":[1.0338265E0,1.4645129E1,1.7060839E-1,2.2180027E-3,6.773058E-3,-1.0238915E-2,-2.3485811E-1],"split_indices":[42,29,0,0,37,0,0],"split_type":[0,0,0,0,0,0,0],"sum_hessian":[2.1865555E1,1.6171856E1,5.6937003E0,1.059487E1,5.5769854E0,2.8154762E0,2.7615092E0],"tree_param":{"num_deleted":"0","num_feature":"43","num_nodes":"7","size_leaf_vector":"1"}},{"base_weights":[8.12701E-2,-2.0082904E-1,1.699503E-1,-6.2727845E-1,1.3037373E-1,-1.687906E-1,1.4245353E-2],"categories":[],"categories_nodes":[],"categories_segments":[],"categories_sizes":[],"default_left":[0,0,0,0,0,0,0],"id":49,"left_children":[1,3,-1,5,-1,-1,-1],"loss_changes":[5.8322725E0,7.104018E0,0E0,3.185175E0,0E0,0E0,0E0],"parents":[2147483647,0,0,1,1,3,3],"right_children":[2,4,-1,6,-1,-1,-1],"split_conditions":[1.0338265E0,2.7312772E0,1.699503E-1,9.6283543E-1,1.3037373E-1,-1.687906E-1,1.4245353E-2],"split_indices":[42,39,0,42,0,0,0],"split_type":[0,0,0,0,0,0,0],"sum_hessian":[2.2239552E1,1.7062126E1,5.1774254E0,1.1875165E1,5.1869607E0,7.766247E0,4.108918E0],"tree_param":{"num_deleted":"0","num_feature":"43","num_nodes":"7","size_leaf_vector":"1"}},{"base_weights":[2.1877442E-2,-3.8708385E-2,1.6965415E-1],"categories":[],"categories_nodes":[],"categories_segments":[],"categories_sizes":[],"default_left":[0,0,0],"id":50,"left_children":[1,-1,-1],"loss_changes":[5.0516233E0,0E0,0E0],"parents":[2147483647,0,0],"right_children":[2,-1,-1],"split_conditions":[1.0338265E0,-3.8708385E-2,1.6965415E-1],"split_indices":[42,0,0],"split_type":[0,0,0],"sum_hessian":[2.0295288E1,1.6166925E1,4.1283627E0],"tree_param":{"num_deleted":"0","num_feature":"43","num_nodes":"3","size_leaf_vector":"1"}},{"base_weights":[9.880677E-2,-1.70839E-1,1.3785824E-1,-1.686527E-1,9.44658E-2],"categories":[],"categories_nodes":[],"categories_segments":[],"categories_sizes":[],"default_left":[0,0,0,0,0],"id":51,"left_children":[1,3,-1,-1,-1],"loss_changes":[3.5695996E0,8.148376E0,0E0,0E0,0E0],"parents":[2147483647,0,0,1,1],"right_children":[2,4,-1,-1,-1],"split_conditions":[2.9803095E0,9.6283543E-1,1.3785824E-1,-1.686527E-1,9.44658E-2],"split_indices":[39,42,0,0,0],"split_type":[0,0,0,0,0],"sum_hessian":[1.8355509E1,1.3360396E1,4.995112E0,6.255056E0,7.1053405E0],"tree_param":{"num_deleted":"0","num_feature":"43","num_nodes":"5","size_leaf_vector":"1"}},{"base_weights":[1.5120402E-1,-2.8526548E-1,1.3182065E-1,-1.6859666E-1,1.2598647E-1],"categories":[],"categories_nodes":[],"categories_segments":[],"categories_sizes":[],"default_left":[0,0,0,0,0],"id":52,"left_children":[1,3,-1,-1,-1],"loss_changes":[4.295502E0,6.832966E0,0E0,0E0,0E0],"parents":[2147483647,0,0,1,1],"right_children":[2,4,-1,-1,-1],"split_conditions":[9.6283543E-1,2.9803095E0,1.3182065E-1,-1.6859666E-1,1.2598647E-1],"split_indices":[42,39,0,0,0],"split_type":[0,0,0,0,0],"sum_hessian":[1.55498295E1,9.203009E0,6.3468213E0,5.434229E0,3.7687795E0],"tree_param":{"num_deleted":"0","num_feature":"43","num_nodes":"5","size_leaf_vector":"1"}},{"base_weights":[-1.7517887E-1,-4.3384653E-1,1.6929282E-1,-6.2746936E-1,8.714608E-2,-1.7220049E-1,-2.4992798E-1,-1.4063498E-1,3.789772E-2],"categories":[],"categories_nodes":[],"categories_segments":[],"categories_sizes":[],"default_left":[0,0,0,0,0,0,0,0,0],"id":53,"left_children":[1,3,-1,5,-1,7,-1,-1,-1],"loss_changes":[4.9185815E0,2.4332843E0,0E0,4.289519E0,0E0,1.8936927E0,0E0,0E0,0E0],"parents":[2147483647,0,0,1,1,3,3,5,5],"right_children":[2,4,-1,6,-1,8,-1,-1,-1],"split_conditions":[1.0338265E0,3.046763E-1,1.6929282E-1,1.916042E0,8.714608E-2,7.0924425E0,-2.4992798E-1,-1.4063498E-1,3.789772E-2],"split_indices":[42,37,0,36,0,34,0,0,0],"split_type":[0,0,0,0,0,0,0,0,0],"sum_hessian":[1.6084368E1,1.31969595E1,2.8874087E0,1.096703E1,2.2299294E0,7.1686397E0,3.7983902E0,2.68402E0,4.4846196E0],"tree_param":{"num_deleted":"0","num_feature":"43","num_nodes":"9","size_leaf_vector":"1"}},{"base_weights":[-2.2772662E-1],"categories":[],"categories_nodes":[],"categories_segments":[],"categories_sizes":[],"default_left":[0],"id":54,"left_children":[-1],"loss_changes":[0E0],"parents":[2147483647],"right_children":[-1],"split_conditions":[-3.8286097E-2],"split_indices":[0],"split_type":[0],"sum_hessian":[1.2587294E1],"tree_param":{"num_deleted":"0","num_feature":"43","num_nodes":"1","size_leaf_vector":"1"}},{"base_weights":[8.1178546E-2,-3.55705E-2,1.6957037E-1],"categories":[],"categories_nodes":[],"categories_segments":[],"categories_sizes":[],"default_left":[0,0,0],"id":55,"left_children":[1,-1,-1],"loss_changes":[3.7418976E0,0E0,0E0],"parents":[2147483647,0,0],"right_children":[2,-1,-1],"split_conditions":[2.9803095E0,-3.55705E-2,1.6957037E-1],"split_indices":[39,0,0],"split_type":[0,0,0],"sum_hessian":[1.3781165E1,1.0474944E1,3.306221E0],"tree_param":{"num_deleted":"0","num_feature":"43","num_nodes":"3","size_leaf_vector":"1"}},{"base_weights":[-6.0461145E-2,-4.9127534E-1,3.924464E-2,-1.6980484E-1,1.6665874E-2],"categories":[],"categories_nodes":[],"categories_segments":[],"categories_sizes":[],"default_left":[0,0,0,0,0],"id":56,"left_children":[1,3,-1,-1,-1],"loss_changes":[1.8253342E0,1.7905753E0,0E0,0E0,0E0],"parents":[2147483647,0,0,1,1],"right_children":[2,4,-1,-1,-1],"split_conditions":[1.090734E0,1.4645129E1,3.924464E-2,-1.6980484E-1,1.6665874E-2],"split_indices":[39,29,0,0,0],"split_type":[0,0,0,0,0],"sum_hessian":[1.4416E1,5.8460293E0,8.569971E0,3.1117673E0,2.7342622E0],"tree_param":{"num_deleted":"0","num_feature":"43","num_nodes":"5","size_leaf_vector":"1"}},{"base_weights":[-4.249427E-2,3.476264E-1,-8.209981E-1,-1.6443744E-2,1.4034729E-1,-2.5141796E-1,-1.997652E-2],"categories":[],"categories_nodes":[],"categories_segments":[],"categories_sizes":[],"default_left":[0,0,0,0,0,0,0],"id":57,"left_children":[1,3,5,-1,-1,-1,-1],"loss_changes":[4.1764503E0,1.9879271E0,2.173927E0,0E0,0E0,0E0,0E0],"parents":[2147483647,0,0,1,1,2,2],"right_children":[2,4,6,-1,-1,-1,-1],"split_conditions":[1.916042E0,9.6283543E-1,5E0,-1.6443744E-2,1.4034729E-1,-2.5141796E-1,-1.997652E-2],"split_indices":[36,42,25,0,0,0,0],"split_type":[0,0,0,0,0,0,0],"sum_hessian":[1.3750618E1,9.160404E0,4.590214E0,4.7852983E0,4.375106E0,2.3411052E0,2.2491083E0],"tree_param":{"num_deleted":"0","num_feature":"43","num_nodes":"7","size_leaf_vector":"1"}},{"base_weights":[-4.9926218E-2],"categories":[],"categories_nodes":[],"categories_segments":[],"categories_sizes":[],"default_left":[0],"id":58,"left_children":[-1],"loss_changes":[0E0],"parents":[2147483647],"right_children":[-1],"split_conditions":[-8.393749E-3],"split_indices":[0],"split_type":[0],"sum_hessian":[1.2981243E1],"tree_param":{"num_deleted":"0","num_feature":"43","num_nodes":"1","size_leaf_vector":"1"}},{"base_weights":[2.9560244E-1,8.881439E-2,1.7009215E-1,6.4493425E-2,-1.0600736E-1],"categories":[],"categories_nodes":[],"categories_segments":[],"categories_sizes":[],"default_left":[0,0,0,0,0],"id":59,"left_children":[1,3,-1,-1,-1],"loss_changes":[2.0925E0,2.3253617E0,0E0,0E0,0E0],"parents":[2147483647,0,0,1,1],"right_children":[2,4,-1,-1,-1],"split_conditions":[2.9803095E0,6.1230767E-1,1.7009215E-1,6.4493425E-2,-1.0600736E-1],"split_indices":[39,28,0,0,0],"split_type":[0,0,0,0,0],"sum_hessian":[1.4130514E1,1.0964743E1,3.1657717E0,7.7776237E0,3.1871188E0],"tree_param":{"num_deleted":"0","num_feature":"43","num_nodes":"5","size_leaf_vector":"1"}},{"base_weights":[4.782135E-2,-1.732498E-1,1.6904089E-1,1.0032752E-1,-7.573874E-2],"categories":[],"categories_nodes":[],"categories_segments":[],"categories_sizes":[],"default_left":[0,0,0,0,0],"id":60,"left_children":[1,3,-1,-1,-1],"loss_changes":[2.794733E0,2.2897053E0,0E0,0E0,0E0],"parents":[2147483647,0,0,1,1],"right_children":[2,4,-1,-1,-1],"split_conditions":[1.0338265E0,6E0,1.6904089E-1,1.0032752E-1,-7.573874E-2],"split_indices":[42,9,0,0,0],"split_type":[0,0,0,0,0],"sum_hessian":[1.3200221E1,1.0724733E1,2.4754882E0,2.8391116E0,7.8856215E0],"tree_param":{"num_deleted":"0","num_feature":"43","num_nodes":"5","size_leaf_vector":"1"}},{"base_weights":[-1.7809775E-2,-2.0132473E-1,1.6887273E-1,-8.0473535E-2,1.0048482E-1],"categories":[],"categories_nodes":[],"categories_segments":[],"categories_sizes":[],"default_left":[0,0,0,0,0],"id":61,"left_children":[1,3,-1,-1,-1],"loss_changes":[2.5628917E0,2.5666387E0,0E0,0E0,0E0],"parents":[2147483647,0,0,1,1],"right_children":[2,4,-1,-1,-1],"split_conditions":[1.0338265E0,2.7312772E0,1.6887273E-1,-8.0473535E-2,1.0048482E-1],"split_indices":[42,39,0,0,0],"split_type":[0,0,0,0,0],"sum_hessian":[1.3660553E1,1.1581763E1,2.0787902E0,8.597707E0,2.9840562E0],"tree_param":{"num_deleted":"0","num_feature":"43","num_nodes":"5","size_leaf_vector":"1"}},{"base_weights":[-2.2702783E-3],"categories":[],"categories_nodes":[],"categories_segments":[],"categories_sizes":[],"default_left":[0],"id":62,"left_children":[-1],"loss_changes":[0E0],"parents":[2147483647],"right_children":[-1],"split_conditions":[-3.8168614E-4],"split_indices":[0],"split_type":[0],"sum_hessian":[1.2096973E1],"tree_param":{"num_deleted":"0","num_feature":"43","num_nodes":"1","size_leaf_vector":"1"}},{"base_weights":[3.0464474E-2,-6.1333084E-1,7.663097E-2,-7.2629764E-3,-2.0637998E-1],"categories":[],"categories_nodes":[],"categories_segments":[],"categories_sizes":[],"default_left":[0,0,0,0,0],"id":63,"left_children":[1,3,-1,-1,-1],"loss_changes":[3.9022338E0,1.985297E0,0E0,0E0,0E0],"parents":[2147483647,0,0,1,1],"right_children":[2,4,-1,-1,-1],"split_conditions":[7.9954356E-1,1.4518608E1,7.663097E-2,-7.2629764E-3,-2.0637998E-1],"split_indices":[42,26,0,0,0],"split_type":[0,0,0,0,0],"sum_hessian":[1.424971E1,5.6689463E0,8.580764E0,2.9402308E0,2.7287152E0],"tree_param":{"num_deleted":"0","num_feature":"43","num_nodes":"5","size_leaf_vector":"1"}},{"base_weights":[1.4410062E-1,-1.4219195E-1,5.9124064E-2],"categories":[],"categories_nodes":[],"categories_segments":[],"categories_sizes":[],"default_left":[0,0,0],"id":64,"left_children":[1,-1,-1],"loss_changes":[2.4052165E0,0E0,0E0],"parents":[2147483647,0,0],"right_children":[2,-1,-1],"split_conditions":[4.9081603E-3,-1.4219195E-1,5.9124064E-2],"split_indices":[37,0,0],"split_type":[0,0,0],"sum_hessian":[1.1705167E1,2.028824E0,9.676343E0],"tree_param":{"num_deleted":"0","num_feature":"43","num_nodes":"3","size_leaf_vector":"1"}},{"base_weights":[-1.3790798E-1],"categories":[],"categories_nodes":[],"categories_segments":[],"categories_sizes":[],"default_left":[0],"id":65,"left_children":[-1],"loss_changes":[0E0],"parents":[2147483647],"right_children":[-1],"split_conditions":[-2.3185512E-2],"split_indices":[0],"split_type":[0],"sum_hessian":[1.118609E1],"tree_param":{"num_deleted":"0","num_feature":"43","num_nodes":"1","size_leaf_vector":"1"}},{"base_weights":[-7.8021954E-3,-8.963181E-2,7.336748E-2],"categories":[],"categories_nodes":[],"categories_segments":[],"categories_sizes":[],"default_left":[0,0,0],"id":66,"left_children":[1,-1,-1],"loss_changes":[2.9500532E0,0E0,0E0],"parents":[2147483647,0,0],"right_children":[2,-1,-1],"split_conditions":[9.6283543E-1,-8.963181E-2,7.336748E-2],"split_indices":[42,0,0],"split_type":[0,0,0],"sum_hessian":[1.2641461E1,5.7917438E0,6.849718E0],"tree_param":{"num_deleted":"0","num_feature":"43","num_nodes":"3","size_leaf_vector":"1"}},{"base_weights":[-5.9380967E-2,-5.9371E-1,6.1504256E-2,2.196458E-2,-2.3457041E-1],"categories":[],"categories_nodes":[],"categories_segments":[],"categories_sizes":[],"default_left":[0,0,0,0,0],"id":67,"left_children":[1,3,-1,-1,-1],"loss_changes":[2.2155595E0,2.5089543E0,0E0,0E0,0E0],"parents":[2147483647,0,0,1,1],"right_children":[2,4,-1,-1,-1],"split_conditions":[4.4426033E-1,8E0,6.1504256E-2,2.196458E-2,-2.3457041E-1],"split_indices":[42,2,0,0,0],"split_type":[0,0,0,0,0],"sum_hessian":[9.750693E0,4.3208594E0,5.429834E0,2.2698557E0,2.051004E0],"tree_param":{"num_deleted":"0","num_feature":"43","num_nodes":"5","size_leaf_vector":"1"}},{"base_weights":[1.0583552E-1],"categories":[],"categories_nodes":[],"categories_segments":[],"categories_sizes":[],"default_left":[0],"id":68,"left_children":[-1],"loss_changes":[0E0],"parents":[2147483647],"right_children":[-1],"split_conditions":[1.7793393E-2],"split_indices":[0],"split_type":[0],"sum_hessian":[1.2743251E1],"tree_param":{"num_deleted":"0","num_feature":"43","num_nodes":"1","size_leaf_vector":"1"}},{"base_weights":[2.5788102E-1,8.188385E-2,-1.0964322E-1],"categories":[],"categories_nodes":[],"categories_segments":[],"categories_sizes":[],"default_left":[0,0,0],"id":69,"left_children":[1,-1,-1],"loss_changes":[2.106602E0,0E0,0E0],"parents":[2147483647,0,0],"right_children":[2,-1,-1],"split_conditions":[1.1090138E0,8.188385E-2,-1.0964322E-1],"split_indices":[40,0,0],"split_type":[0,0,0],"sum_hessian":[1.0100138E1,8.068527E0,2.0316107E0],"tree_param":{"num_deleted":"0","num_feature":"43","num_nodes":"3","size_leaf_vector":"1"}},{"base_weights":[-9.4501995E-2,-3.2373378E-1,1.6898425E-1,-9.687968E-2,-1.9981655E-1,-1.5921217E-1,8.9045025E-2],"categories":[],"categories_nodes":[],"categories_segments":[],"categories_sizes":[],"default_left":[0,0,0,0,0,0,0],"id":70,"left_children":[1,3,-1,5,-1,-1,-1],"loss_changes":[2.946816E0,1.8977293E0,0E0,4.082137E0,0E0,0E0,0E0],"parents":[2147483647,0,0,1,1,3,3],"right_children":[2,4,-1,6,-1,-1,-1],"split_conditions":[3.0776544E0,1E0,1.6898425E-1,4.0705106E-1,-1.9981655E-1,-1.5921217E-1,8.9045025E-2],"split_indices":[39,14,0,32,0,0,0],"split_type":[0,0,0,0,0,0,0],"sum_hessian":[1.1689618E1,9.673368E0,2.0162501E0,7.663499E0,2.0098696E0,3.2514555E0,4.412043E0],"tree_param":{"num_deleted":"0","num_feature":"43","num_nodes":"7","size_leaf_vector":"1"}},{"base_weights":[2.6124852E-2,-1.0479129E-1,5.6636803E-2],"categories":[],"categories_nodes":[],"categories_segments":[],"categories_sizes":[],"default_left":[0,0,0],"id":71,"left_children":[1,-1,-1],"loss_changes":[2.2085924E0,0E0,0E0],"parents":[2147483647,0,0],"right_children":[2,-1,-1],"split_conditions":[9.425618E-1,-1.0479129E-1,5.6636803E-2],"split_indices":[39,0,0],"split_type":[0,0,0],"sum_hessian":[1.0943077E1,3.5414758E0,7.4016013E0],"tree_param":{"num_deleted":"0","num_feature":"43","num_nodes":"3","size_leaf_vector":"1"}},{"base_weights":[6.8494774E-2,-1.5744701E-1,4.7282867E-2],"categories":[],"categories_nodes":[],"categories_segments":[],"categories_sizes":[],"default_left":[0,0,0],"id":72,"left_children":[1,-1,-1],"loss_changes":[2.481719E0,0E0,0E0],"parents":[2147483647,0,0],"right_children":[2,-1,-1],"split_conditions":[6.2531705E0,-1.5744701E-1,4.7282867E-2],"split_indices":[34,0,0],"split_type":[0,0,0],"sum_hessian":[1.1606405E1,2.0274458E0,9.578959E0],"tree_param":{"num_deleted":"0","num_feature":"43","num_nodes":"3","size_leaf_vector":"1"}},{"base_weights":[1.7890288E-1],"categories":[],"categories_nodes":[],"categories_segments":[],"categories_sizes":[],"default_left":[0],"id":73,"left_children":[-1],"loss_changes":[0E0],"parents":[2147483647],"right_children":[-1],"split_conditions":[3.0077701E-2],"split_indices":[0],"split_type":[0],"sum_hessian":[1.1379825E1],"tree_param":{"num_deleted":"0","num_feature":"43","num_nodes":"1","size_leaf_vector":"1"}},{"base_weights":[9.511267E-2,6.262625E-2,-1.7636545E-1],"categories":[],"categories_nodes":[],"categories_segments":[],"categories_sizes":[],"default_left":[0,0,0],"id":74,"left_children":[1,-1,-1],"loss_changes":[3.2647521E0,0E0,0E0],"parents":[2147483647,0,0],"right_children":[2,-1,-1],"split_conditions":[1.0842436E1,6.262625E-2,-1.7636545E-1],"split_indices":[34,0,0],"split_type":[0,0,0],"sum_hessian":[1.0285938E1,8.279021E0,2.006917E0],"tree_param":{"num_deleted":"0","num_feature":"43","num_nodes":"3","size_leaf_vector":"1"}},{"base_weights":[-2.2415975E-1],"categories":[],"categories_nodes":[],"categories_segments":[],"categories_sizes":[],"default_left":[0],"id":75,"left_children":[-1],"loss_changes":[0E0],"parents":[2147483647],"right_children":[-1],"split_conditions":[-3.7686422E-2],"split_indices":[0],"split_type":[0],"sum_hessian":[1.0021837E1],"tree_param":{"num_deleted":"0","num_feature":"43","num_nodes":"1","size_leaf_vector":"1"}},{"base_weights":[-1.3375519E-1],"categories":[],"categories_nodes":[],"categories_segments":[],"categories_sizes":[],"default_left":[0],"id":76,"left_children":[-1],"loss_changes":[0E0],"parents":[2147483647],"right_children":[-1],"split_conditions":[-2.2487333E-2],"split_indices":[0],"split_type":[0],"sum_hessian":[1.1592392E1],"tree_param":{"num_deleted":"0","num_feature":"43","num_nodes":"1","size_leaf_vector":"1"}},{"base_weights":[7.61813E-2],"categories":[],"categories_nodes":[],"categories_segments":[],"categories_sizes":[],"default_left":[0],"id":77,"left_children":[-1],"loss_changes":[0E0],"parents":[2147483647],"right_children":[-1],"split_conditions":[1.2807834E-2],"split_indices":[0],"split_type":[0],"sum_hessian":[1.214491E1],"tree_param":{"num_deleted":"0","num_feature":"43","num_nodes":"1","size_leaf_vector":"1"}},{"base_weights":[5.845268E-2],"categories":[],"categories_nodes":[],"categories_segments":[],"categories_sizes":[],"default_left":[0],"id":78,"left_children":[-1],"loss_changes":[0E0],"parents":[2147483647],"right_children":[-1],"split_conditions":[9.827244E-3],"split_indices":[0],"split_type":[0],"sum_hessian":[9.932122E0],"tree_param":{"num_deleted":"0","num_feature":"43","num_nodes":"1","size_leaf_vector":"1"}},{"base_weights":[-5.223685E-2,-6.6954575E-2,8.41336E-2],"categories":[],"categories_nodes":[],"categories_segments":[],"categories_sizes":[],"default_left":[0,0,0],"id":79,"left_children":[1,-1,-1],"loss_changes":[1.9378474E0,0E0,0E0],"parents":[2147483647,0,0],"right_children":[2,-1,-1],"split_conditions":[1E0,-6.6954575E-2,8.41336E-2],"split_indices":[3,0,0],"split_type":[0,0,0],"sum_hessian":[1.0132872E1,6.23157E0,3.9013023E0],"tree_param":{"num_deleted":"0","num_feature":"43","num_nodes":"3","size_leaf_vector":"1"}},{"base_weights":[-8.388196E-2],"categories":[],"categories_nodes":[],"categories_segments":[],"categories_sizes":[],"default_left":[0],"id":80,"left_children":[-1],"loss_changes":[0E0],"parents":[2147483647],"right_children":[-1],"split_conditions":[-1.41024925E-2],"split_indices":[0],"split_type":[0],"sum_hessian":[1.0835609E1],"tree_param":{"num_deleted":"0","num_feature":"43","num_nodes":"1","size_leaf_vector":"1"}},{"base_weights":[-1.20505854E-1,-4.560138E-1,8.6779274E-2,-9.359966E-3,-2.3035924E-1],"categories":[],"categories_nodes":[],"categories_segments":[],"categories_sizes":[],"default_left":[0,0,0,0,0],"id":81,"left_children":[1,3,-1,-1,-1],"loss_changes":[2.1869478E0,2.4537644E0,0E0,0E0,0E0],"parents":[2147483647,0,0,1,1],"right_children":[2,4,-1,-1,-1],"split_conditions":[9.546393E-1,8.296717E-1,8.6779274E-2,-9.359966E-3,-2.3035924E-1],"split_indices":[40,40,0,0,0],"split_type":[0,0,0,0,0],"sum_hessian":[1.0237277E1,6.704385E0,3.5328925E0,4.6628375E0,2.041547E0],"tree_param":{"num_deleted":"0","num_feature":"43","num_nodes":"5","size_leaf_vector":"1"}},{"base_weights":[-1.9663441E-1,2.7434299E-2,-1.3473247E-1],"categories":[],"categories_nodes":[],"categories_segments":[],"categories_sizes":[],"default_left":[0,0,0],"id":82,"left_children":[1,-1,-1],"loss_changes":[1.9121886E0,0E0,0E0],"parents":[2147483647,0,0],"right_children":[2,-1,-1],"split_conditions":[1.916042E0,2.7434299E-2,-1.3473247E-1],"split_indices":[36,0,0],"split_type":[0,0,0],"sum_hessian":[8.786934E0,5.509318E0,3.2776155E0],"tree_param":{"num_deleted":"0","num_feature":"43","num_nodes":"3","size_leaf_vector":"1"}},{"base_weights":[1.2885503E-1,-1.4498143E-1,3.5015893E-1,-1.2890044E-2,1.4198013E-1],"categories":[],"categories_nodes":[],"categories_segments":[],"categories_sizes":[],"default_left":[0,0,0,0,0],"id":83,"left_children":[1,-1,3,-1,-1],"loss_changes":[2.4158995E0,0E0,1.8997079E0,0E0,0E0],"parents":[2147483647,0,0,2,2],"right_children":[2,-1,4,-1,-1],"split_conditions":[1.3863449E-1,-1.4498143E-1,8.468469E0,-1.2890044E-2,1.4198013E-1],"split_indices":[41,0,34,0,0],"split_type":[0,0,0,0,0],"sum_hessian":[1.101255E1,2.0097528E0,9.002798E0,4.8314805E0,4.1713176E0],"tree_param":{"num_deleted":"0","num_feature":"43","num_nodes":"5","size_leaf_vector":"1"}},{"base_weights":[-4.3170977E-2],"categories":[],"categories_nodes":[],"categories_segments":[],"categories_sizes":[],"default_left":[0],"id":84,"left_children":[-1],"loss_changes":[0E0],"parents":[2147483647],"right_children":[-1],"split_conditions":[-7.258037E-3],"split_indices":[0],"split_type":[0],"sum_hessian":[1.0992337E1],"tree_param":{"num_deleted":"0","num_feature":"43","num_nodes":"1","size_leaf_vector":"1"}},{"base_weights":[2.936297E-2,-1.9615841E-1,1.688775E-1,7.65011E-2,-8.494524E-2],"categories":[],"categories_nodes":[],"categories_segments":[],"categories_sizes":[],"default_left":[0,0,0,0,0],"id":85,"left_children":[1,3,-1,-1,-1],"loss_changes":[2.4377124E0,1.8121973E0,0E0,0E0,0E0],"parents":[2147483647,0,0,1,1],"right_children":[2,4,-1,-1,-1],"split_conditions":[3.0776544E0,3.3E1,1.688775E-1,7.65011E-2,-8.494524E-2],"split_indices":[39,8,0,0,0],"split_type":[0,0,0,0,0],"sum_hessian":[1.1084166E1,9.002444E0,2.081722E0,2.8976412E0,6.1048026E0],"tree_param":{"num_deleted":"0","num_feature":"43","num_nodes":"5","size_leaf_vector":"1"}},{"base_weights":[-1.2283274E-1],"categories":[],"categories_nodes":[],"categories_segments":[],"categories_sizes":[],"default_left":[0],"id":86,"left_children":[-1],"loss_changes":[0E0],"parents":[2147483647],"right_children":[-1],"split_conditions":[-2.0651016E-2],"split_indices":[0],"split_type":[0],"sum_hessian":[1.09666605E1],"tree_param":{"num_deleted":"0","num_feature":"43","num_nodes":"1","size_leaf_vector":"1"}},{"base_weights":[-5.9094373E-2,8.513242E-2,-4.6660367E-1,2.4417355E-3,-2.3178011E-1],"categories":[],"categories_nodes":[],"categories_segments":[],"categories_sizes":[],"default_left":[0,0,0,0,0],"id":87,"left_children":[1,-1,3,-1,-1],"loss_changes":[2.365361E0,0E0,2.617763E0,0E0,0E0],"parents":[2147483647,0,0,2,2],"right_children":[2,-1,4,-1,-1],"split_conditions":[5E0,8.513242E-2,2.2161648E0,2.4417355E-3,-2.3178011E-1],"split_indices":[16,0,38,0,0],"split_type":[0,0,0,0,0],"sum_hessian":[1.0264083E1,4.2988415E0,5.9652414E0,3.9053977E0,2.0598438E0],"tree_param":{"num_deleted":"0","num_feature":"43","num_nodes":"5","size_leaf_vector":"1"}},{"base_weights":[6.9912024E-2,-7.455822E-2,8.1893556E-2],"categories":[],"categories_nodes":[],"categories_segments":[],"categories_sizes":[],"default_left":[0,0,0],"id":88,"left_children":[1,-1,-1],"loss_changes":[2.062868E0,0E0,0E0],"parents":[2147483647,0,0],"right_children":[2,-1,-1],"split_conditions":[5.007563E-1,-7.455822E-2,8.1893556E-2],"split_indices":[41,0,0],"split_type":[0,0,0],"sum_hessian":[9.630607E0,4.3175254E0,5.313081E0],"tree_param":{"num_deleted":"0","num_feature":"43","num_nodes":"3","size_leaf_vector":"1"}},{"base_weights":[1.3317554E-1],"categories":[],"categories_nodes":[],"categories_segments":[],"categories_sizes":[],"default_left":[0],"id":89,"left_children":[-1],"loss_changes":[0E0],"parents":[2147483647],"right_children":[-1],"split_conditions":[2.238988E-2],"split_indices":[0],"split_type":[0],"sum_hessian":[1.0316955E1],"tree_param":{"num_deleted":"0","num_feature":"43","num_nodes":"1","size_leaf_vector":"1"}},{"base_weights":[4.4250093E-2],"categories":[],"categories_nodes":[],"categories_segments":[],"categories_sizes":[],"default_left":[0],"id":90,"left_children":[-1],"loss_changes":[0E0],"parents":[2147483647],"right_children":[-1],"split_conditions":[7.4394615E-3],"split_indices":[0],"split_type":[0],"sum_hessian":[9.964135E0],"tree_param":{"num_deleted":"0","num_feature":"43","num_nodes":"1","size_leaf_vector":"1"}},{"base_weights":[2.2105789E-1],"categories":[],"categories_nodes":[],"categories_segments":[],"categories_sizes":[],"default_left":[0],"id":91,"left_children":[-1],"loss_changes":[0E0],"parents":[2147483647],"right_children":[-1],"split_conditions":[3.716493E-2],"split_indices":[0],"split_type":[0],"sum_hessian":[1.1667181E1],"tree_param":{"num_deleted":"0","num_feature":"43","num_nodes":"1","size_leaf_vector":"1"}},{"base_weights":[5.037965E-3],"categories":[],"categories_nodes":[],"categories_segments":[],"categories_sizes":[],"default_left":[0],"id":92,"left_children":[-1],"loss_changes":[0E0],"parents":[2147483647],"right_children":[-1],"split_conditions":[8.4699807E-4],"split_indices":[0],"split_type":[0],"sum_hessian":[1.0752813E1],"tree_param":{"num_deleted":"0","num_feature":"43","num_nodes":"1","size_leaf_vector":"1"}},{"base_weights":[1.4304169E-1],"categories":[],"categories_nodes":[],"categories_segments":[],"categories_sizes":[],"default_left":[0],"id":93,"left_children":[-1],"loss_changes":[0E0],"parents":[2147483647],"right_children":[-1],"split_conditions":[2.4048606E-2],"split_indices":[0],"split_type":[0],"sum_hessian":[1.121256E1],"tree_param":{"num_deleted":"0","num_feature":"43","num_nodes":"1","size_leaf_vector":"1"}},{"base_weights":[1.3750437E-2],"categories":[],"categories_nodes":[],"categories_segments":[],"categories_sizes":[],"default_left":[0],"id":94,"left_children":[-1],"loss_changes":[0E0],"parents":[2147483647],"right_children":[-1],"split_conditions":[2.3117657E-3],"split_indices":[0],"split_type":[0],"sum_hessian":[1.06489105E1],"tree_param":{"num_deleted":"0","num_feature":"43","num_nodes":"1","size_leaf_vector":"1"}},{"base_weights":[-4.2686608E-2],"categories":[],"categories_nodes":[],"categories_segments":[],"categories_sizes":[],"default_left":[0],"id":95,"left_children":[-1],"loss_changes":[0E0],"parents":[2147483647],"right_children":[-1],"split_conditions":[-7.176603E-3],"split_indices":[0],"split_type":[0],"sum_hessian":[1.1832996E1],"tree_param":{"num_deleted":"0","num_feature":"43","num_nodes":"1","size_leaf_vector":"1"}},{"base_weights":[4.6254735E-2],"categories":[],"categories_nodes":[],"categories_segments":[],"categories_sizes":[],"default_left":[0],"id":96,"left_children":[-1],"loss_changes":[0E0],"parents":[2147483647],"right_children":[-1],"split_conditions":[7.776488E-3],"split_indices":[0],"split_type":[0],"sum_hessian":[1.1076116E1],"tree_param":{"num_deleted":"0","num_feature":"43","num_nodes":"1","size_leaf_vector":"1"}},{"base_weights":[3.2604698E-2],"categories":[],"categories_nodes":[],"categories_segments":[],"categories_sizes":[],"default_left":[0],"id":97,"left_children":[-1],"loss_changes":[0E0],"parents":[2147483647],"right_children":[-1],"split_conditions":[5.4816017E-3],"split_indices":[0],"split_type":[0],"sum_hessian":[1.0024704E1],"tree_param":{"num_deleted":"0","num_feature":"43","num_nodes":"1","size_leaf_vector":"1"}},{"base_weights":[4.236295E-2],"categories":[],"categories_nodes":[],"categories_segments":[],"categories_sizes":[],"default_left":[0],"id":98,"left_children":[-1],"loss_changes":[0E0],"parents":[2147483647],"right_children":[-1],"split_conditions":[7.1221893E-3],"split_indices":[0],"split_type":[0],"sum_hessian":[9.787985E0],"tree_param":{"num_deleted":"0","num_feature":"43","num_nodes":"1","size_leaf_vector":"1"}},{"base_weights":[1.7602999E-2],"categories":[],"categories_nodes":[],"categories_segments":[],"categories_sizes":[],"default_left":[0],"id":99,"left_children":[-1],"loss_changes":[0E0],"parents":[2147483647],"right_children":[-1],"split_conditions":[2.95947E-3],"split_indices":[0],"split_type":[0],"sum_hessian":[1.1942313E1],"tree_param":{"num_deleted":"0","num_feature":"43","num_nodes":"1","size_leaf_vector":"1"}},{"base_weights":[-8.052346E-2],"categories":[],"categories_nodes":[],"categories_segments":[],"categories_sizes":[],"default_left":[0],"id":100,"left_children":[-1],"loss_changes":[0E0],"parents":[2147483647],"right_children":[-1],"split_conditions":[-1.3537851E-2],"split_indices":[0],"split_type":[0],"sum_hessian":[1.1507373E1],"tree_param":{"num_deleted":"0","num_feature":"43","num_nodes":"1","size_leaf_vector":"1"}},{"base_weights":[4.8443466E-2],"categories":[],"categories_nodes":[],"categories_segments":[],"categories_sizes":[],"default_left":[0],"id":101,"left_children":[-1],"loss_changes":[0E0],"parents":[2147483647],"right_children":[-1],"split_conditions":[8.144464E-3],"split_indices":[0],"split_type":[0],"sum_hessian":[9.289187E0],"tree_param":{"num_deleted":"0","num_feature":"43","num_nodes":"1","size_leaf_vector":"1"}},{"base_weights":[1.0258372E-2],"categories":[],"categories_nodes":[],"categories_segments":[],"categories_sizes":[],"default_left":[0],"id":102,"left_children":[-1],"loss_changes":[0E0],"parents":[2147483647],"right_children":[-1],"split_conditions":[1.7246689E-3],"split_indices":[0],"split_type":[0],"sum_hessian":[1.1711166E1],"tree_param":{"num_deleted":"0","num_feature":"43","num_nodes":"1","size_leaf_vector":"1"}},{"base_weights":[-2.0788328E-1,1.7794077E-1,-1.3756016E-1,-3.7422363E-2,1.5832688E-1],"categories":[],"categories_nodes":[],"categories_segments":[],"categories_sizes":[],"default_left":[0,0,0,0,0],"id":103,"left_children":[1,3,-1,-1,-1],"loss_changes":[2.2876468E0,1.8210293E0,0E0,0E0,0E0],"parents":[2147483647,0,0,1,1],"right_children":[2,4,-1,-1,-1],"split_conditions":[1E1,2.7312772E0,-1.3756016E-1,-3.7422363E-2,1.5832688E-1],"split_indices":[2,39,0,0,0],"split_type":[0,0,0,0,0],"sum_hessian":[9.714173E0,5.9518986E0,3.762275E0,3.9046078E0,2.047291E0],"tree_param":{"num_deleted":"0","num_feature":"43","num_nodes":"5","size_leaf_vector":"1"}},{"base_weights":[-5.991049E-2,-8.804891E-2,5.6257978E-2],"categories":[],"categories_nodes":[],"categories_segments":[],"categories_sizes":[],"default_left":[0,0,0],"id":104,"left_children":[1,-1,-1],"loss_changes":[2.0055509E0,0E0,0E0],"parents":[2147483647,0,0],"right_children":[2,-1,-1],"split_conditions":[9.6283543E-1,-8.804891E-2,5.6257978E-2],"split_indices":[42,0,0],"split_type":[0,0,0],"sum_hessian":[1.0959233E1,5.037337E0,5.921897E0],"tree_param":{"num_deleted":"0","num_feature":"43","num_nodes":"3","size_leaf_vector":"1"}},{"base_weights":[1.5627034E-1],"categories":[],"categories_nodes":[],"categories_segments":[],"categories_sizes":[],"default_left":[0],"id":105,"left_children":[-1],"loss_changes":[0E0],"parents":[2147483647],"right_children":[-1],"split_conditions":[2.6272649E-2],"split_indices":[0],"split_type":[0],"sum_hessian":[1.1301171E1],"tree_param":{"num_deleted":"0","num_feature":"43","num_nodes":"1","size_leaf_vector":"1"}},{"base_weights":[1.6825502E-1],"categories":[],"categories_nodes":[],"categories_segments":[],"categories_sizes":[],"default_left":[0],"id":106,"left_children":[-1],"loss_changes":[0E0],"parents":[2147483647],"right_children":[-1],"split_conditions":[2.8287549E-2],"split_indices":[0],"split_type":[0],"sum_hessian":[1.0420402E1],"tree_param":{"num_deleted":"0","num_feature":"43","num_nodes":"1","size_leaf_vector":"1"}},{"base_weights":[-1.4810379E-1,3.187458E-2,-1.5599395E-1],"categories":[],"categories_nodes":[],"categories_segments":[],"categories_sizes":[],"default_left":[0,0,0],"id":107,"left_children":[1,-1,-1],"loss_changes":[2.5764177E0,0E0,0E0],"parents":[2147483647,0,0],"right_children":[2,-1,-1],"split_conditions":[1.4518608E1,3.187458E-2,-1.5599395E-1],"split_indices":[26,0,0],"split_type":[0,0,0],"sum_hessian":[9.783727E0,6.82727E0,2.9564567E0],"tree_param":{"num_deleted":"0","num_feature":"43","num_nodes":"3","size_leaf_vector":"1"}},{"base_weights":[2.162084E-2],"categories":[],"categories_nodes":[],"categories_segments":[],"categories_sizes":[],"default_left":[0],"id":108,"left_children":[-1],"loss_changes":[0E0],"parents":[2147483647],"right_children":[-1],"split_conditions":[3.6349618E-3],"split_indices":[0],"split_type":[0],"sum_hessian":[1.0306082E1],"tree_param":{"num_deleted":"0","num_feature":"43","num_nodes":"1","size_leaf_vector":"1"}},{"base_weights":[-1.6690682E-1],"categories":[],"categories_nodes":[],"categories_segments":[],"categories_sizes":[],"default_left":[0],"id":109,"left_children":[-1],"loss_changes":[0E0],"parents":[2147483647],"right_children":[-1],"split_conditions":[-2.8060887E-2],"split_indices":[0],"split_type":[0],"sum_hessian":[1.0735518E1],"tree_param":{"num_deleted":"0","num_feature":"43","num_nodes":"1","size_leaf_vector":"1"}},{"base_weights":[5.8700815E-2,-3.6558304E-2,1.1787539E-1],"categories":[],"categories_nodes":[],"categories_segments":[],"categories_sizes":[],"default_left":[0,0,0],"id":110,"left_children":[1,-1,-1],"loss_changes":[1.851573E0,0E0,0E0],"parents":[2147483647,0,0],"right_children":[2,-1,-1],"split_conditions":[2.9803095E0,-3.6558304E-2,1.1787539E-1],"split_indices":[39,0,0],"split_type":[0,0,0],"sum_hessian":[1.0436144E1,7.2989116E0,3.1372328E0],"tree_param":{"num_deleted":"0","num_feature":"43","num_nodes":"3","size_leaf_vector":"1"}},{"base_weights":[-2.7518697E-2],"categories":[],"categories_nodes":[],"categories_segments":[],"categories_sizes":[],"default_left":[0],"id":111,"left_children":[-1],"loss_changes":[0E0],"parents":[2147483647],"right_children":[-1],"split_conditions":[-4.626528E-3],"split_indices":[0],"split_type":[0],"sum_hessian":[1.0408592E1],"tree_param":{"num_deleted":"0","num_feature":"43","num_nodes":"1","size_leaf_vector":"1"}},{"base_weights":[-2.2579601E-1],"categories":[],"categories_nodes":[],"categories_segments":[],"categories_sizes":[],"default_left":[0],"id":112,"left_children":[-1],"loss_changes":[0E0],"parents":[2147483647],"right_children":[-1],"split_conditions":[-3.7961517E-2],"split_indices":[0],"split_type":[0],"sum_hessian":[9.81893E0],"tree_param":{"num_deleted":"0","num_feature":"43","num_nodes":"1","size_leaf_vector":"1"}},{"base_weights":[2.6114407E-1],"categories":[],"categories_nodes":[],"categories_segments":[],"categories_sizes":[],"default_left":[0],"id":113,"left_children":[-1],"loss_changes":[0E0],"parents":[2147483647],"right_children":[-1],"split_conditions":[4.390434E-2],"split_indices":[0],"split_type":[0],"sum_hessian":[9.954329E0],"tree_param":{"num_deleted":"0","num_feature":"43","num_nodes":"1","size_leaf_vector":"1"}},{"base_weights":[4.919531E-2],"categories":[],"categories_nodes":[],"categories_segments":[],"categories_sizes":[],"default_left":[0],"id":114,"left_children":[-1],"loss_changes":[0E0],"parents":[2147483647],"right_children":[-1],"split_conditions":[8.270866E-3],"split_indices":[0],"split_type":[0],"sum_hessian":[8.82678E0],"tree_param":{"num_deleted":"0","num_feature":"43","num_nodes":"1","size_leaf_vector":"1"}},{"base_weights":[2.1389465E-1],"categories":[],"categories_nodes":[],"categories_segments":[],"categories_sizes":[],"default_left":[0],"id":115,"left_children":[-1],"loss_changes":[0E0],"parents":[2147483647],"right_children":[-1],"split_conditions":[3.5960626E-2],"split_indices":[0],"split_type":[0],"sum_hessian":[9.16061E0],"tree_param":{"num_deleted":"0","num_feature":"43","num_nodes":"1","size_leaf_vector":"1"}},{"base_weights":[1.2193582E-3],"categories":[],"categories_nodes":[],"categories_segments":[],"categories_sizes":[],"default_left":[0],"id":116,"left_children":[-1],"loss_changes":[0E0],"parents":[2147483647],"right_children":[-1],"split_conditions":[2.0500223E-4],"split_indices":[0],"split_type":[0],"sum_hessian":[8.440715E0],"tree_param":{"num_deleted":"0","num_feature":"43","num_nodes":"1","size_leaf_vector":"1"}},{"base_weights":[-2.0812604E-1],"categories":[],"categories_nodes":[],"categories_segments":[],"categories_sizes":[],"default_left":[0],"id":117,"left_children":[-1],"loss_changes":[0E0],"parents":[2147483647],"right_children":[-1],"split_conditions":[-3.4990788E-2],"split_indices":[0],"split_type":[0],"sum_hessian":[9.374861E0],"tree_param":{"num_deleted":"0","num_feature":"43","num_nodes":"1","size_leaf_vector":"1"}},{"base_weights":[1.7813191E-1],"categories":[],"categories_nodes":[],"categories_segments":[],"categories_sizes":[],"default_left":[0],"id":118,"left_children":[-1],"loss_changes":[0E0],"parents":[2147483647],"right_children":[-1],"split_conditions":[2.9948082E-2],"split_indices":[0],"split_type":[0],"sum_hessian":[1.0595153E1],"tree_param":{"num_deleted":"0","num_feature":"43","num_nodes":"1","size_leaf_vector":"1"}},{"base_weights":[-1.0824171E-1,3.2551814E-2,-1.2871175E-1],"categories":[],"categories_nodes":[],"categories_segments":[],"categories_sizes":[],"default_left":[0,0,0],"id":119,"left_children":[1,-1,-1],"loss_changes":[1.8667234E0,0E0,0E0],"parents":[2147483647,0,0],"right_children":[2,-1,-1],"split_conditions":[2.4777021E0,3.2551814E-2,-1.2871175E-1],"split_indices":[38,0,0],"split_type":[0,0,0],"sum_hessian":[9.406976E0,6.4467797E0,2.9601955E0],"tree_param":{"num_deleted":"0","num_feature":"43","num_nodes":"3","size_leaf_vector":"1"}},{"base_weights":[3.4776296E-2],"categories":[],"categories_nodes":[],"categories_segments":[],"categories_sizes":[],"default_left":[0],"id":120,"left_children":[-1],"loss_changes":[0E0],"parents":[2147483647],"right_children":[-1],"split_conditions":[5.8466974E-3],"split_indices":[0],"split_type":[0],"sum_hessian":[1.0214397E1],"tree_param":{"num_deleted":"0","num_feature":"43","num_nodes":"1","size_leaf_vector":"1"}},{"base_weights":[-1.1672104E-1],"categories":[],"categories_nodes":[],"categories_segments":[],"categories_sizes":[],"default_left":[0],"id":121,"left_children":[-1],"loss_changes":[0E0],"parents":[2147483647],"right_children":[-1],"split_conditions":[-1.96235E-2],"split_indices":[0],"split_type":[0],"sum_hessian":[9.309557E0],"tree_param":{"num_deleted":"0","num_feature":"43","num_nodes":"1","size_leaf_vector":"1"}},{"base_weights":[1.1745033E-1,-6.507628E-2,9.1165654E-2],"categories":[],"categories_nodes":[],"categories_segments":[],"categories_sizes":[],"default_left":[0,0,0],"id":122,"left_children":[1,-1,-1],"loss_changes":[2.277318E0,0E0,0E0],"parents":[2147483647,0,0],"right_children":[2,-1,-1],"split_conditions":[8.468469E0,-6.507628E-2,9.1165654E-2],"split_indices":[34,0,0],"split_type":[0,0,0],"sum_hessian":[1.0624722E1,4.8566575E0,5.768064E0],"tree_param":{"num_deleted":"0","num_feature":"43","num_nodes":"3","size_leaf_vector":"1"}},{"base_weights":[-1.9094092E-1,5.372669E-2,-1.1642084E-1],"categories":[],"categories_nodes":[],"categories_segments":[],"categories_sizes":[],"default_left":[0,0,0],"id":123,"left_children":[1,-1,-1],"loss_changes":[2.3673978E0,0E0,0E0],"parents":[2147483647,0,0],"right_children":[2,-1,-1],"split_conditions":[8E0,5.372669E-2,-1.1642084E-1],"split_indices":[2,0,0],"split_type":[0,0,0],"sum_hessian":[9.245543E0,4.5818353E0,4.663707E0],"tree_param":{"num_deleted":"0","num_feature":"43","num_nodes":"3","size_leaf_vector":"1"}},{"base_weights":[-8.040257E-2],"categories":[],"categories_nodes":[],"categories_segments":[],"categories_sizes":[],"default_left":[0],"id":124,"left_children":[-1],"loss_changes":[0E0],"parents":[2147483647],"right_children":[-1],"split_conditions":[-1.3517526E-2],"split_indices":[0],"split_type":[0],"sum_hessian":[9.303139E0],"tree_param":{"num_deleted":"0","num_feature":"43","num_nodes":"1","size_leaf_vector":"1"}},{"base_weights":[-6.768326E-2,3.128067E-2,-1.8206815E-1],"categories":[],"categories_nodes":[],"categories_segments":[],"categories_sizes":[],"default_left":[0,0,0],"id":125,"left_children":[1,-1,-1],"loss_changes":[2.6227026E0,0E0,0E0],"parents":[2147483647,0,0],"right_children":[2,-1,-1],"split_conditions":[1.3099655E0,3.128067E-2,-1.8206815E-1],"split_indices":[41,0,0],"split_type":[0,0,0],"sum_hessian":[1.0179978E1,8.144716E0,2.0352628E0],"tree_param":{"num_deleted":"0","num_feature":"43","num_nodes":"3","size_leaf_vector":"1"}},{"base_weights":[2.43843E-2],"categories":[],"categories_nodes":[],"categories_segments":[],"categories_sizes":[],"default_left":[0],"id":126,"left_children":[-1],"loss_changes":[0E0],"parents":[2147483647],"right_children":[-1],"split_conditions":[4.099563E-3],"split_indices":[0],"split_type":[0],"sum_hessian":[1.0798476E1],"tree_param":{"num_deleted":"0","num_feature":"43","num_nodes":"1","size_leaf_vector":"1"}},{"base_weights":[-3.916119E-3],"categories":[],"categories_nodes":[],"categories_segments":[],"categories_sizes":[],"default_left":[0],"id":127,"left_children":[-1],"loss_changes":[0E0],"parents":[2147483647],"right_children":[-1],"split_conditions":[-6.5839E-4],"split_indices":[0],"split_type":[0],"sum_hessian":[9.710984E0],"tree_param":{"num_deleted":"0","num_feature":"43","num_nodes":"1","size_leaf_vector":"1"}},{"base_weights":[4.5100614E-2],"categories":[],"categories_nodes":[],"categories_segments":[],"categories_sizes":[],"default_left":[0],"id":128,"left_children":[-1],"loss_changes":[0E0],"parents":[2147483647],